svm_type c_svc
kernel_type rbf
gamma 0.0833333
nr_class 2
total_sv 23316
rho -0.674807
label 1 -1
nr_sv 16310 7006
SV
0.3251620963551954 1:118 2:134 3:109 4:157 5:106 6:162 7:91 8:57 9:226 10:53 11:110 12:208 
1 1:111 2:174 3:109 4:221 5:143 6:95 7:91 8:57 9:53 10:53 11:110 12:208 
1 1:114 2:117 3:136 4:221 5:183 6:95 7:55 8:57 9:53 10:53 11:110 12:208 
0.3249530164101626 1:116 2:117 3:109 4:221 5:190 6:69 7:55 8:68 9:53 10:53 11:110 12:53 
1 1:116 2:117 3:121 4:221 5:143 6:69 7:91 8:68 9:53 10:53 11:110 12:208 
0.3249886501285671 1:119 2:117 3:90 4:248 5:172 6:162 7:55 8:68 9:53 10:53 11:113 12:64 
0.2955869719232007 1:111 2:117 3:103 4:157 5:82 6:162 7:55 8:57 9:53 10:53 11:111 12:208 
0.3255535074441531 1:113 2:117 3:176 4:221 5:246 6:95 7:236 8:57 9:53 10:53 11:115 12:95 
1 1:117 2:117 3:136 4:221 5:82 6:95 7:91 8:57 9:53 10:53 11:111 12:208 
0.08536564842967409 1:115 2:117 3:108 4:115 5:172 6:129 7:55 8:68 9:53 10:53 11:108 12:208 
0.1956367630021755 1:114 2:120 3:90 4:221 5:165 6:95 7:55 8:57 9:53 10:53 11:110 12:208 
0.2136317347700219 1:113 2:117 3:136 4:221 5:246 6:95 7:91 8:57 9:53 10:220 11:110 12:208 
0.2148643656714497 1:120 2:117 3:108 4:106 5:186 6:129 7:91 8:68 9:53 10:53 11:110 12:208 
0.987718344250022 1:118 2:117 3:108 4:106 5:143 6:162 7:91 8:57 9:53 10:53 11:114 12:208 
1 1:119 2:117 3:108 4:221 5:140 6:95 7:91 8:57 9:53 10:53 11:110 12:208 
0.2464429045450044 1:111 2:112 3:103 4:157 5:222 6:162 7:91 8:57 9:53 10:53 11:113 12:208 
0.2374173572269764 1:108 2:117 3:136 4:157 5:82 6:113 7:55 8:57 9:53 10:53 11:114 12:208 
0.3256616807323852 1:115 2:117 3:109 4:106 5:143 6:113 7:91 8:57 9:53 10:225 11:110 12:208 
0.3250077438532935 1:109 2:120 3:136 4:221 5:106 6:113 7:91 8:57 9:53 10:53 11:110 12:208 
0.3251952159848369 1:110 2:134 3:136 4:221 5:172 6:95 7:55 8:57 9:53 10:53 11:112 12:208 
0.3251348915283261 1:118 2:117 3:136 4:157 5:189 6:129 7:91 8:57 9:53 10:53 11:110 12:191 
0.3120415001631272 1:116 2:117 3:108 4:246 5:106 6:69 7:91 8:68 9:53 10:53 11:113 12:208 
0.3078814584142555 1:118 2:174 3:103 4:221 5:190 6:95 7:91 8:57 9:53 10:53 11:110 12:208 
0.1258578780280143 1:110 2:117 3:90 4:221 5:189 6:95 7:91 8:57 9:53 10:53 11:113 12:208 
1 1:114 2:174 3:109 4:221 5:190 6:95 7:91 8:57 9:53 10:53 11:110 12:208 
1 1:112 2:117 3:109 4:221 5:186 6:95 7:91 8:57 9:53 10:53 11:111 12:208 
0.2022821499891196 1:119 2:117 3:108 4:115 5:106 6:129 7:91 8:68 9:53 10:53 11:110 12:208 
1 1:114 2:117 3:108 4:221 5:189 6:95 7:91 8:57 9:53 10:53 11:117 12:208 
0.4775047070562651 1:114 2:117 3:121 4:106 5:143 6:129 7:91 8:68 9:53 10:53 11:110 12:208 
0.2746348183474038 1:111 2:134 3:122 4:221 5:140 6:95 7:91 8:57 9:53 10:53 11:110 12:208 
0.6620496509910427 1:117 2:117 3:122 4:157 5:190 6:162 7:91 8:57 9:53 10:53 11:113 12:208 
1 1:113 2:117 3:136 4:221 5:143 6:69 7:92 8:68 9:53 10:53 11:110 12:208 
0.3256801556104815 1:115 2:117 3:108 4:157 5:172 6:113 7:91 8:68 9:53 10:53 11:109 12:0 
0.8614500675683584 1:117 2:126 3:108 4:106 5:143 6:162 7:91 8:57 9:53 10:53 11:112 12:208 
0.3251295287442452 1:114 2:117 3:122 4:221 5:172 6:95 7:91 8:57 9:53 10:53 11:110 12:191 
0.1239485505709985 1:111 2:117 3:108 4:221 5:106 6:95 7:91 8:57 9:53 10:53 11:118 12:208 
0.4667152691221223 1:109 2:117 3:108 4:221 5:189 6:95 7:91 8:57 9:221 10:53 11:110 12:208 
0.2949468535663919 1:109 2:117 3:109 4:221 5:82 6:95 7:91 8:57 9:225 10:53 11:110 12:208 
0.3255477610889396 1:111 2:0 3:176 4:248 5:0 6:162 7:91 8:57 9:53 10:53 11:110 12:0 
1 1:118 2:117 3:108 4:221 5:246 6:95 7:91 8:57 9:53 10:53 11:110 12:208 
0.1814288398440815 1:117 2:117 3:136 4:106 5:186 6:162 7:91 8:57 9:53 10:53 11:119 12:208 
0.3249782893036238 1:110 2:117 3:109 4:115 5:82 6:113 7:55 8:68 9:53 10:53 11:110 12:208 
0.3255508897763084 1:122 2:117 3:136 4:221 5:190 6:183 7:91 8:57 9:53 10:53 11:108 12:208 
0.2208301540847391 1:115 2:117 3:108 4:157 5:172 6:113 7:91 8:57 9:53 10:53 11:110 12:95 
1 1:110 2:117 3:103 4:221 5:106 6:95 7:91 8:57 9:53 10:53 11:110 12:208 
0.296961936386881 1:110 2:112 3:176 4:221 5:165 6:95 7:91 8:57 9:53 10:53 11:110 12:208 
0.3210247774751974 1:113 2:117 3:109 4:221 5:172 6:95 7:91 8:57 9:53 10:53 11:110 12:53 
1 1:116 2:117 3:108 4:221 5:172 6:69 7:91 8:68 9:53 10:53 11:110 12:208 
1 1:120 2:117 3:108 4:221 5:82 6:95 7:91 8:57 9:53 10:53 11:118 12:208 
1 1:112 2:117 3:121 4:221 5:190 6:95 7:91 8:57 9:53 10:53 11:111 12:208 
0.169198760098877 1:109 2:117 3:90 4:157 5:82 6:162 7:91 8:57 9:53 10:53 11:110 12:208 
1 1:118 2:117 3:122 4:221 5:190 6:95 7:91 8:57 9:53 10:53 11:110 12:208 
0.04554920025912057 1:116 2:117 3:136 4:106 5:189 6:129 7:55 8:68 9:53 10:53 11:113 12:208 
0.3255442105315434 1:109 2:117 3:108 4:221 5:82 6:69 7:222 8:68 9:53 10:228 11:114 12:0 
0.1412565734555682 1:117 2:112 3:136 4:157 5:183 6:162 7:91 8:57 9:53 10:53 11:111 12:208 
0.3255127900866108 1:118 2:117 3:103 4:106 5:143 6:129 7:91 8:68 9:53 10:53 11:110 12:83 
0.2160293954335957 1:111 2:120 3:108 4:157 5:172 6:113 7:55 8:57 9:53 10:53 11:110 12:208 
0.2190567595302547 1:117 2:174 3:121 4:157 5:190 6:162 7:91 8:68 9:53 10:53 11:111 12:208 
0.3250476690387364 1:114 2:0 3:135 4:157 5:0 6:113 7:91 8:68 9:286 10:53 11:111 12:208 
0.04907726545147591 1:110 2:112 3:108 4:157 5:106 6:162 7:91 8:68 9:53 10:53 11:110 12:208 
0.04410260115693422 1:112 2:117 3:109 4:157 5:82 6:183 7:91 8:57 9:53 10:53 11:110 12:208 
0.324837284238857 1:116 2:117 3:136 4:221 5:82 6:69 7:91 8:68 9:226 10:53 11:113 12:208 
1 1:117 2:126 3:136 4:221 5:82 6:95 7:91 8:57 9:53 10:53 11:111 12:208 
1 1:116 2:117 3:136 4:221 5:82 6:95 7:91 8:57 9:53 10:53 11:117 12:208 
1 1:110 2:117 3:109 4:221 5:143 6:95 7:91 8:57 9:53 10:53 11:112 12:208 
0.3254890777542522 1:109 2:117 3:109 4:157 5:143 6:113 7:55 8:57 9:53 10:53 11:110 12:109 
0.108108958113035 1:116 2:117 3:136 4:157 5:172 6:113 7:55 8:57 9:53 10:53 11:114 12:208 
0.2963156204904434 1:108 2:117 3:136 4:157 5:106 6:113 7:91 8:68 9:53 10:230 11:116 12:208 
0.1198559635573481 1:116 2:117 3:103 4:157 5:82 6:162 7:91 8:68 9:53 10:53 11:112 12:208 
0.226035577600169 1:112 2:117 3:108 4:157 5:172 6:162 7:91 8:68 9:53 10:228 11:110 12:208 
0.3614556387332964 1:117 2:174 3:108 4:221 5:140 6:95 7:91 8:57 9:233 10:53 11:114 12:208 
1 1:116 2:117 3:109 4:221 5:82 6:95 7:91 8:57 9:53 10:53 11:111 12:208 
0.3083755016765111 1:116 2:117 3:103 4:106 5:186 6:162 7:55 8:68 9:53 10:53 11:115 12:208 
0.5276473328823423 1:115 2:117 3:122 4:221 5:106 6:69 7:91 8:68 9:53 10:53 11:114 12:208 
1 1:113 2:126 3:108 4:221 5:140 6:95 7:91 8:57 9:53 10:53 11:110 12:208 
0.2005221244332435 1:116 2:117 3:136 4:157 5:172 6:113 7:91 8:57 9:53 10:53 11:109 12:95 
0.1229606769859683 1:113 2:117 3:136 4:157 5:186 6:183 7:91 8:57 9:53 10:53 11:110 12:208 
0.2060245491860695 1:110 2:117 3:108 4:157 5:246 6:129 7:55 8:68 9:53 10:53 11:109 12:208 
1 1:116 2:117 3:136 4:221 5:140 6:95 7:91 8:57 9:53 10:231 11:110 12:208 
0.3224453282331143 1:117 2:112 3:136 4:106 5:106 6:129 7:91 8:68 9:53 10:53 11:117 12:95 
0.3254869832546964 1:112 2:117 3:109 4:157 5:143 6:183 7:222 8:68 9:53 10:53 11:110 12:159 
1 1:118 2:117 3:108 4:221 5:140 6:95 7:91 8:57 9:53 10:53 11:116 12:208 
0.3254734143091902 1:114 2:174 3:136 4:115 5:82 6:129 7:55 8:57 9:53 10:228 11:55 12:208 
0.3120049368693311 1:112 2:117 3:109 4:115 5:172 6:183 7:55 8:57 9:53 10:53 11:111 12:208 
0.2567782614949553 1:120 2:0 3:177 4:106 5:0 6:162 7:91 8:68 9:53 10:53 11:108 12:208 
0.3255535178143669 1:114 2:126 3:121 4:106 5:143 6:129 7:222 8:68 9:53 10:53 11:110 12:208 
0.3003549547376437 1:116 2:117 3:108 4:157 5:143 6:162 7:222 8:68 9:53 10:53 11:110 12:83 
0.3251157164722508 1:115 2:117 3:136 4:106 5:172 6:129 7:91 8:68 9:53 10:53 11:110 12:95 
0.231370850595399 1:118 2:120 3:103 4:157 5:143 6:162 7:91 8:57 9:53 10:53 11:112 12:208 
0.3251041830316989 1:116 2:134 3:121 4:109 5:222 6:129 7:91 8:57 9:53 10:53 11:110 12:208 
0.1796131915662246 1:118 2:112 3:122 4:109 5:190 6:162 7:91 8:68 9:53 10:53 11:108 12:208 
0.3252280653923282 1:115 2:117 3:108 4:157 5:172 6:162 7:91 8:57 9:53 10:230 11:110 12:208 
0.3255588501823716 1:115 2:117 3:108 4:248 5:82 6:129 7:91 8:68 9:53 10:53 11:113 12:208 
1 1:112 2:117 3:109 4:221 5:190 6:95 7:91 8:57 9:53 10:53 11:117 12:208 
0.02937526149585836 1:109 2:117 3:136 4:157 5:140 6:162 7:55 8:57 9:53 10:53 11:115 12:208 
0.575581211250591 1:113 2:117 3:108 4:221 5:106 6:95 7:55 8:57 9:53 10:53 11:110 12:208 
0.2921985950965716 1:111 2:174 3:109 4:106 5:143 6:162 7:91 8:68 9:53 10:53 11:110 12:208 
0.1580408707487699 1:114 2:0 3:109 4:106 5:0 6:162 7:91 8:68 9:53 10:53 11:111 12:208 
1 1:110 2:117 3:121 4:221 5:190 6:69 7:91 8:68 9:53 10:53 11:111 12:208 
0.2316406958365469 1:117 2:117 3:136 4:106 5:189 6:162 7:55 8:68 9:53 10:53 11:116 12:208 
0.5371653772133058 1:111 2:112 3:109 4:221 5:140 6:95 7:55 8:57 9:53 10:53 11:110 12:208 
0.09800291989521605 1:117 2:117 3:136 4:221 5:186 6:95 7:91 8:57 9:53 10:53 11:115 12:208 
1 1:111 2:120 3:109 4:221 5:186 6:95 7:91 8:57 9:53 10:53 11:112 12:208 
0.3254758728477565 1:111 2:117 3:172 4:221 5:246 6:183 7:91 8:57 9:53 10:53 11:110 12:95 
0.3137932670340883 1:116 2:0 3:108 4:157 5:0 6:113 7:91 8:57 9:53 10:53 11:110 12:93 
0.3249893049513132 1:112 2:112 3:136 4:157 5:190 6:162 7:91 8:68 9:53 10:220 11:110 12:208 
0.3383432351188922 1:116 2:134 3:108 4:106 5:106 6:129 7:91 8:68 9:53 10:53 11:114 12:208 
1 1:114 2:112 3:108 4:221 5:246 6:95 7:55 8:57 9:53 10:53 11:110 12:208 
0.3250974311836307 1:114 2:117 3:136 4:157 5:82 6:162 7:236 8:68 9:53 10:53 11:110 12:208 
0.2828667227444136 1:112 2:117 3:108 4:221 5:140 6:95 7:222 8:57 9:53 10:53 11:110 12:208 
0.2646107632258192 1:111 2:117 3:103 4:106 5:82 6:162 7:91 8:68 9:53 10:53 11:110 12:208 
0.3196660935367647 1:117 2:117 3:109 4:221 5:82 6:95 7:91 8:57 9:53 10:53 11:111 12:88 
1 1:115 2:117 3:109 4:221 5:190 6:95 7:91 8:57 9:53 10:53 11:116 12:208 
0.1211460784750954 1:116 2:0 3:177 4:106 5:0 6:162 7:91 8:57 9:53 10:53 11:110 12:208 
0.3252426913219937 1:115 2:117 3:108 4:157 5:172 6:162 7:55 8:57 9:53 10:222 11:110 12:208 
0.2508778803202183 1:114 2:112 3:137 4:157 5:189 6:162 7:91 8:68 9:53 10:53 11:114 12:208 
0.3239926150131382 1:112 2:0 3:135 4:106 5:0 6:162 7:236 8:68 9:53 10:53 11:107 12:208 
0.1473320937608542 1:118 2:174 3:108 4:221 5:165 6:95 7:91 8:57 9:226 10:53 11:111 12:208 
0.3252440573434361 1:118 2:117 3:122 4:109 5:106 6:162 7:91 8:68 9:53 10:53 11:108 12:102 
0.3254642238660645 1:114 2:117 3:136 4:115 5:246 6:162 7:55 8:57 9:232 10:53 11:110 12:208 
0.2921329424235822 1:111 2:117 3:108 4:106 5:82 6:129 7:55 8:68 9:53 10:53 11:117 12:208 
0.1958485609617435 1:112 2:117 3:136 4:106 5:140 6:183 7:92 8:68 9:53 10:53 11:110 12:208 
0.03778051010596074 1:120 2:134 3:108 4:221 5:172 6:95 7:91 8:57 9:53 10:53 11:110 12:208 
0.1996202828573377 1:110 2:134 3:136 4:157 5:106 6:162 7:91 8:68 9:53 10:53 11:117 12:208 
0.2677422340162052 1:111 2:174 3:108 4:221 5:172 6:69 7:91 8:68 9:53 10:53 11:108 12:208 
0.08488903753797479 1:112 2:134 3:103 4:221 5:222 6:95 7:91 8:57 9:53 10:53 11:111 12:208 
0.3022943453584093 1:117 2:117 3:136 4:106 5:140 6:162 7:91 8:57 9:53 10:225 11:110 12:208 
1 1:117 2:117 3:108 4:221 5:106 6:95 7:91 8:57 9:53 10:53 11:114 12:0 
1 1:115 2:117 3:108 4:221 5:106 6:95 7:91 8:57 9:53 10:53 11:110 12:0 
0.2338200656236347 1:120 2:112 3:135 4:109 5:172 6:129 7:55 8:68 9:53 10:53 11:109 12:208 
0.2510282968966372 1:119 2:117 3:136 4:157 5:246 6:162 7:91 8:57 9:53 10:53 11:108 12:208 
0.008210770272490574 1:108 2:117 3:108 4:157 5:172 6:113 7:91 8:68 9:53 10:53 11:110 12:208 
0.05207255721886137 1:111 2:117 3:108 4:115 5:172 6:162 7:91 8:68 9:53 10:53 11:109 12:208 
0.01192842629220109 1:115 2:117 3:122 4:109 5:143 6:162 7:91 8:68 9:53 10:53 11:115 12:208 
0.1675238818534762 1:111 2:117 3:176 4:106 5:140 6:162 7:91 8:57 9:53 10:53 11:110 12:208 
0.8879734420600138 1:115 2:117 3:109 4:106 5:190 6:113 7:91 8:68 9:53 10:53 11:110 12:208 
0.2645089771465871 1:120 2:117 3:136 4:221 5:82 6:95 7:91 8:57 9:226 10:53 11:110 12:208 
0.3251856710176493 1:116 2:0 3:136 4:157 5:0 6:113 7:91 8:57 9:53 10:53 11:112 12:50 
0.02800754103628758 1:112 2:117 3:109 4:157 5:190 6:162 7:91 8:68 9:53 10:53 11:115 12:208 
0.3254674103871313 1:114 2:117 3:90 4:157 5:172 6:113 7:91 8:57 9:223 10:53 11:112 12:208 
0.3249162597718265 1:111 2:174 3:121 4:221 5:165 6:95 7:91 8:57 9:225 10:53 11:123 12:208 
0.316331038490413 1:115 2:112 3:121 4:157 5:190 6:113 7:91 8:57 9:53 10:53 11:114 12:208 
0.1491129215640591 1:109 2:117 3:108 4:106 5:190 6:113 7:91 8:68 9:53 10:53 11:110 12:208 
0.2723210551696684 1:110 2:117 3:109 4:157 5:190 6:162 7:91 8:68 9:53 10:53 11:112 12:109 
0.2561264795559632 1:113 2:117 3:103 4:106 5:82 6:129 7:55 8:68 9:53 10:53 11:115 12:208 
0.1700383195233028 1:111 2:117 3:176 4:221 5:140 6:95 7:91 8:57 9:53 10:53 11:110 12:93 
1 1:115 2:117 3:109 4:221 5:190 6:95 7:91 8:57 9:53 10:53 11:115 12:208 
0.3076034138087823 1:117 2:112 3:109 4:157 5:222 6:162 7:91 8:57 9:53 10:53 11:117 12:208 
0.05701217322180731 1:115 2:117 3:109 4:157 5:186 6:129 7:55 8:68 9:53 10:53 11:110 12:208 
0.2197671618956505 1:116 2:126 3:109 4:106 5:82 6:162 7:91 8:68 9:53 10:53 11:112 12:208 
0.3254677903993529 1:118 2:0 3:121 4:221 5:0 6:69 7:222 8:68 9:229 10:53 11:110 12:0 
0.2575010903037629 1:109 2:117 3:136 4:157 5:172 6:162 7:222 8:68 9:53 10:53 11:113 12:208 
0.3254289732350119 1:112 2:117 3:136 4:221 5:106 6:69 7:222 8:68 9:53 10:53 11:110 12:73 
0.06919119934518742 1:114 2:117 3:103 4:157 5:186 6:162 7:91 8:57 9:53 10:53 11:115 12:208 
0.1085950321715336 1:116 2:117 3:103 4:157 5:190 6:162 7:91 8:68 9:53 10:53 11:112 12:208 
0.2328597225684402 1:116 2:0 3:136 4:157 5:0 6:113 7:55 8:68 9:53 10:53 11:113 12:208 
0.3252288325690902 1:110 2:117 3:172 4:221 5:189 6:183 7:91 8:68 9:53 10:53 11:110 12:95 
0.8159127283245466 1:113 2:117 3:136 4:221 5:140 6:95 7:91 8:57 9:53 10:230 11:111 12:208 
0.3899275796558914 1:114 2:117 3:108 4:106 5:246 6:162 7:91 8:57 9:53 10:53 11:115 12:208 
0.1313096850526513 1:117 2:117 3:136 4:157 5:143 6:162 7:91 8:68 9:53 10:53 11:110 12:208 
1 1:119 2:174 3:121 4:221 5:140 6:95 7:91 8:57 9:53 10:53 11:107 12:208 
0.3250128331464414 1:111 2:0 3:122 4:157 5:0 6:113 7:55 8:68 9:53 10:53 11:112 12:208 
1 1:119 2:174 3:108 4:221 5:183 6:95 7:91 8:57 9:53 10:53 11:110 12:208 
0.3257247492574725 1:118 2:117 3:108 4:157 5:246 6:162 7:91 8:57 9:219 10:53 11:116 12:208 
0.08716027080530939 1:111 2:117 3:136 4:157 5:140 6:162 7:55 8:57 9:53 10:53 11:115 12:208 
0.2423763904075448 1:117 2:117 3:122 4:157 5:172 6:162 7:91 8:57 9:53 10:53 11:110 12:208 
0.1648979110659232 1:116 2:112 3:135 4:221 5:106 6:95 7:91 8:57 9:53 10:53 11:110 12:208 
0.2338880546963004 1:114 2:117 3:172 4:157 5:172 6:183 7:91 8:57 9:53 10:53 11:118 12:95 
0.629422961678085 1:119 2:117 3:121 4:157 5:190 6:162 7:91 8:57 9:53 10:53 11:112 12:208 
0.3254616284570085 1:116 2:117 3:108 4:157 5:82 6:129 7:55 8:57 9:53 10:53 11:109 12:73 
0.3251484538907802 1:110 2:134 3:136 4:157 5:222 6:113 7:55 8:68 9:53 10:53 11:110 12:208 
0.1443910238407214 1:113 2:174 3:109 4:157 5:82 6:162 7:91 8:57 9:53 10:53 11:112 12:208 
0.3154875565543659 1:109 2:0 3:122 4:106 5:0 6:129 7:91 8:68 9:53 10:53 11:110 12:208 
0.3249933474207932 1:117 2:117 3:103 4:248 5:172 6:162 7:91 8:57 9:53 10:53 11:113 12:68 
0.02551386876681557 1:110 2:117 3:109 4:157 5:190 6:113 7:91 8:57 9:53 10:53 11:113 12:208 
0.3190755582694205 1:117 2:117 3:136 4:109 5:172 6:129 7:92 8:57 9:53 10:53 11:110 12:208 
1 1:112 2:117 3:108 4:221 5:106 6:69 7:91 8:68 9:53 10:53 11:114 12:208 
0.3252835554105694 1:114 2:174 3:90 4:221 5:140 6:95 7:91 8:57 9:53 10:53 11:110 12:136 
0.3916737384569472 1:113 2:117 3:109 4:221 5:246 6:95 7:91 8:57 9:53 10:53 11:115 12:208 
0.3239648229652787 1:110 2:117 3:108 4:248 5:82 6:162 7:91 8:57 9:53 10:53 11:116 12:208 
0.5474281233956959 1:117 2:174 3:136 4:221 5:82 6:95 7:91 8:57 9:53 10:53 11:115 12:208 
0.2687614975351089 1:110 2:117 3:103 4:157 5:82 6:162 7:91 8:68 9:53 10:53 11:112 12:208 
0.6105917210256101 1:118 2:117 3:108 4:106 5:82 6:129 7:91 8:68 9:53 10:53 11:110 12:208 
0.1827412667410702 1:114 2:120 3:136 4:157 5:106 6:129 7:91 8:68 9:53 10:53 11:112 12:208 
0.2419883831494366 1:108 2:112 3:136 4:157 5:106 6:113 7:91 8:68 9:53 10:53 11:107 12:208 
1 1:112 2:117 3:108 4:221 5:140 6:69 7:91 8:68 9:53 10:53 11:110 12:208 
0.5996979151870139 1:116 2:174 3:121 4:106 5:143 6:162 7:91 8:57 9:53 10:53 11:109 12:208 
1 1:117 2:117 3:108 4:221 5:82 6:95 7:91 8:57 9:53 10:53 11:111 12:208 
0.3247968473077646 1:116 2:117 3:172 4:106 5:140 6:162 7:91 8:68 9:53 10:229 11:115 12:208 
0.2888664436704911 1:115 2:112 3:136 4:221 5:246 6:69 7:91 8:68 9:53 10:53 11:110 12:208 
0.1919249503195756 1:117 2:117 3:108 4:115 5:189 6:162 7:91 8:57 9:53 10:53 11:110 12:208 
0.2974183356758079 1:116 2:174 3:103 4:115 5:140 6:162 7:91 8:57 9:53 10:53 11:110 12:208 
0.1330254709617292 1:115 2:117 3:136 4:106 5:183 6:129 7:91 8:68 9:53 10:53 11:110 12:208 
0.2815870291079205 1:108 2:0 3:108 4:157 5:0 6:183 7:91 8:68 9:53 10:53 11:114 12:208 
0.2310623010762188 1:113 2:117 3:122 4:106 5:186 6:162 7:91 8:68 9:53 10:53 11:116 12:208 
0.3250652621798927 1:116 2:117 3:176 4:221 5:183 6:95 7:92 8:57 9:53 10:231 11:110 12:191 
1 1:116 2:117 3:108 4:221 5:106 6:95 7:91 8:57 9:53 10:53 11:110 12:208 
0.2410371372808197 1:116 2:174 3:108 4:221 5:140 6:95 7:91 8:57 9:53 10:53 11:113 12:208 
1 1:111 2:117 3:136 4:221 5:143 6:95 7:91 8:57 9:53 10:53 11:111 12:208 
0.2934497802885309 1:111 2:112 3:136 4:106 5:172 6:162 7:55 8:68 9:53 10:53 11:112 12:208 
0.1891238317829642 1:113 2:117 3:177 4:221 5:189 6:95 7:91 8:57 9:53 10:53 11:110 12:95 
0.2900631501121628 1:113 2:112 3:136 4:115 5:189 6:162 7:55 8:57 9:53 10:53 11:110 12:208 
0.3251573913311822 1:113 2:134 3:108 4:106 5:246 6:129 7:91 8:68 9:53 10:53 11:110 12:208 
0.2970337585130365 1:108 2:117 3:136 4:221 5:82 6:95 7:91 8:57 9:53 10:53 11:109 12:208 
0.3225142162486844 1:114 2:117 3:136 4:157 5:183 6:113 7:91 8:57 9:228 10:53 11:115 12:208 
0.2627169451692307 1:117 2:117 3:108 4:106 5:165 6:162 7:91 8:57 9:53 10:53 11:110 12:208 
0.264558253215511 1:112 2:117 3:135 4:157 5:140 6:129 7:91 8:68 9:53 10:53 11:114 12:208 
1 1:113 2:117 3:108 4:221 5:246 6:95 7:91 8:57 9:53 10:53 11:112 12:208 
0.3005190490547081 1:115 2:120 3:121 4:157 5:190 6:162 7:91 8:57 9:53 10:225 11:110 12:208 
0.3225042109825806 1:111 2:117 3:108 4:157 5:183 6:162 7:91 8:57 9:53 10:53 11:115 12:219 
1 1:117 2:112 3:121 4:221 5:190 6:95 7:91 8:57 9:53 10:53 11:110 12:208 
0.3178891128419722 1:114 2:0 3:108 4:109 5:0 6:162 7:91 8:57 9:53 10:53 11:112 12:208 
0.3254245670371688 1:110 2:174 3:109 4:248 5:190 6:162 7:91 8:68 9:226 10:53 11:110 12:208 
0.3254218801750444 1:115 2:117 3:136 4:157 5:140 6:113 7:222 8:57 9:53 10:230 11:110 12:159 
0.3253543206117893 1:113 2:112 3:108 4:157 5:165 6:162 7:55 8:57 9:177 10:53 11:112 12:208 
0.2918214896929369 1:113 2:112 3:136 4:157 5:222 6:162 7:91 8:68 9:53 10:53 11:110 12:208 
0.3229321018722876 1:112 2:120 3:108 4:157 5:158 6:113 7:91 8:57 9:53 10:53 11:110 12:208 
0.3252042707014868 1:115 2:117 3:90 4:157 5:140 6:183 7:91 8:57 9:53 10:53 11:110 12:95 
0.3925415940375055 1:114 2:117 3:108 4:109 5:143 6:129 7:55 8:68 9:53 10:53 11:110 12:208 
0.9564953153818384 1:108 2:117 3:108 4:221 5:189 6:95 7:91 8:57 9:53 10:53 11:110 12:208 
1 1:109 2:117 3:108 4:221 5:143 6:69 7:91 8:68 9:53 10:53 11:110 12:208 
0.176900115529442 1:117 2:117 3:136 4:221 5:246 6:95 7:55 8:57 9:53 10:53 11:111 12:208 
1 1:111 2:117 3:108 4:221 5:246 6:95 7:91 8:57 9:53 10:53 11:112 12:208 
0.2919778430252745 1:114 2:117 3:103 4:157 5:165 6:113 7:91 8:57 9:53 10:53 11:110 12:208 
0.05295606643392956 1:115 2:112 3:108 4:221 5:246 6:95 7:55 8:57 9:53 10:53 11:110 12:208 
1 1:111 2:117 3:109 4:221 5:190 6:95 7:91 8:57 9:53 10:53 11:111 12:208 
0.3253519655809224 1:111 2:117 3:177 4:248 5:140 6:129 7:91 8:57 9:53 10:53 11:110 12:208 
1 1:116 2:117 3:108 4:221 5:106 6:69 7:91 8:68 9:53 10:53 11:112 12:208 
1 1:117 2:117 3:136 4:221 5:246 6:95 7:91 8:57 9:53 10:53 11:110 12:208 
0.2836933057571762 1:119 2:117 3:122 4:106 5:172 6:162 7:91 8:68 9:53 10:53 11:112 12:208 
0.1242108897851268 1:116 2:117 3:109 4:157 5:140 6:162 7:91 8:68 9:53 10:53 11:110 12:208 
0.3253472138580038 1:114 2:117 3:90 4:157 5:172 6:162 7:91 8:57 9:53 10:53 11:59 12:208 
0.3236720068169966 1:112 2:117 3:103 4:221 5:140 6:95 7:91 8:57 9:53 10:53 11:115 12:136 
0.3645528966934205 1:116 2:134 3:109 4:157 5:190 6:162 7:91 8:57 9:53 10:53 11:108 12:208 
0.2230107544412308 1:111 2:117 3:108 4:248 5:140 6:129 7:91 8:68 9:53 10:53 11:110 12:208 
0.325167944612507 1:113 2:0 3:137 4:157 5:0 6:183 7:55 8:57 9:177 10:53 11:110 12:208 
0.3202071052928714 1:113 2:117 3:136 4:248 5:106 6:113 7:55 8:68 9:53 10:53 11:108 12:208 
0.1084284374053381 1:115 2:0 3:177 4:221 5:0 6:95 7:91 8:57 9:53 10:53 11:114 12:208 
0.3913733803235495 1:120 2:112 3:108 4:221 5:246 6:95 7:91 8:57 9:53 10:53 11:115 12:208 
0.0430080509339666 1:116 2:120 3:108 4:106 5:106 6:162 7:91 8:57 9:53 10:53 11:110 12:208 
0.3251002855602098 1:111 2:117 3:172 4:157 5:172 6:113 7:91 8:57 9:53 10:53 11:110 12:160 
0.2942197764273055 1:111 2:112 3:108 4:157 5:165 6:162 7:91 8:57 9:53 10:53 11:110 12:88 
0.3251749179134563 1:119 2:117 3:136 4:106 5:172 6:129 7:91 8:68 9:53 10:53 11:112 12:73 
0.1001078759724391 1:112 2:117 3:109 4:157 5:143 6:162 7:55 8:57 9:53 10:53 11:110 12:208 
0.3252278018033465 1:116 2:117 3:136 4:157 5:222 6:113 7:91 8:57 9:53 10:53 11:61 12:208 
1 1:113 2:117 3:136 4:221 5:143 6:95 7:91 8:57 9:53 10:53 11:110 12:208 
0.3063465201902074 1:117 2:112 3:108 4:115 5:106 6:129 7:55 8:68 9:53 10:53 11:110 12:208 
0.3253362132170986 1:119 2:117 3:122 4:248 5:183 6:129 7:91 8:57 9:53 10:224 11:112 12:208 
0.2737752014198348 1:114 2:0 3:172 4:109 5:0 6:129 7:55 8:68 9:53 10:53 11:109 12:208 
0.4990333803034511 1:111 2:117 3:122 4:157 5:140 6:162 7:91 8:57 9:53 10:53 11:115 12:208 
0.3038248898156271 1:118 2:0 3:122 4:109 5:0 6:129 7:91 8:68 9:53 10:53 11:117 12:208 
0.3253390918888258 1:113 2:117 3:136 4:157 5:106 6:162 7:236 8:68 9:53 10:53 11:108 12:208 
0.2840929415586194 1:109 2:0 3:136 4:157 5:0 6:129 7:91 8:68 9:53 10:53 11:114 12:208 
0.3234002949476363 1:112 2:112 3:136 4:106 5:183 6:162 7:55 8:57 9:53 10:53 11:111 12:208 
1 1:116 2:117 3:136 4:221 5:82 6:69 7:91 8:68 9:53 10:53 11:110 12:208 
0.2264210320960945 1:117 2:117 3:136 4:106 5:106 6:162 7:91 8:68 9:53 10:53 11:62 12:208 
0.4807269233879916 1:114 2:174 3:121 4:221 5:190 6:95 7:91 8:57 9:53 10:53 11:110 12:208 
0.3249628171822935 1:114 2:117 3:136 4:106 5:189 6:129 7:92 8:68 9:53 10:53 11:116 12:191 
0.6134568669299901 1:115 2:117 3:108 4:221 5:172 6:95 7:55 8:57 9:53 10:53 11:110 12:208 
1 1:118 2:112 3:137 4:221 5:186 6:95 7:91 8:57 9:53 10:53 11:111 12:208 
0.2246111696704847 1:118 2:117 3:177 4:109 5:221 6:162 7:55 8:68 9:53 10:53 11:109 12:208 
0.3604341225842786 1:117 2:117 3:122 4:115 5:140 6:162 7:91 8:57 9:53 10:53 11:110 12:208 
0.3245347382405666 1:110 2:126 3:109 4:157 5:165 6:162 7:91 8:68 9:53 10:53 11:115 12:208 
0.3042888169088032 1:117 2:117 3:127 4:157 5:190 6:113 7:91 8:57 9:53 10:53 11:110 12:208 
0.2479117367742465 1:109 2:117 3:136 4:157 5:183 6:129 7:91 8:68 9:53 10:53 11:110 12:208 
0.01336941349161697 1:111 2:117 3:108 4:157 5:183 6:162 7:91 8:68 9:53 10:53 11:115 12:208 
0.1959369233301063 1:119 2:117 3:135 4:221 5:172 6:69 7:91 8:68 9:53 10:53 11:61 12:208 
1 1:114 2:112 3:136 4:221 5:222 6:95 7:91 8:57 9:53 10:53 11:110 12:208 
0.3105884270851346 1:114 2:117 3:108 4:221 5:189 6:69 7:55 8:68 9:53 10:53 11:110 12:208 
0.2779796260558203 1:121 2:117 3:136 4:157 5:189 6:162 7:91 8:68 9:53 10:53 11:110 12:208 
0.3251505349042498 1:110 2:117 3:108 4:115 5:106 6:129 7:91 8:68 9:53 10:53 11:108 12:0 
1 1:113 2:117 3:108 4:221 5:186 6:69 7:91 8:68 9:53 10:53 11:111 12:208 
0.2464686485939465 1:109 2:117 3:136 4:221 5:172 6:95 7:91 8:57 9:53 10:53 11:110 12:95 
0.1516772329046803 1:112 2:117 3:108 4:157 5:183 6:129 7:55 8:68 9:53 10:53 11:110 12:208 
0.3238593023398073 1:108 2:117 3:108 4:157 5:183 6:113 7:236 8:57 9:53 10:53 11:118 12:208 
0.3242426439501344 1:113 2:126 3:121 4:221 5:143 6:95 7:91 8:57 9:221 10:53 11:115 12:208 
0.2349857885007111 1:115 2:117 3:176 4:115 5:172 6:129 7:91 8:68 9:53 10:53 11:110 12:95 
0.1805388230284332 1:117 2:174 3:108 4:115 5:140 6:162 7:91 8:57 9:53 10:53 11:114 12:208 
1 1:117 2:117 3:121 4:106 5:143 6:129 7:91 8:57 9:53 10:53 11:112 12:208 
1 1:112 2:117 3:108 4:221 5:190 6:95 7:91 8:57 9:53 10:53 11:110 12:208 
1 1:115 2:117 3:127 4:157 5:190 6:162 7:91 8:68 9:53 10:53 11:113 12:208 
0.04339677306592755 1:115 2:0 3:137 4:157 5:0 6:113 7:91 8:57 9:53 10:53 11:113 12:208 
0.4101626376584158 1:115 2:174 3:103 4:106 5:82 6:129 7:91 8:68 9:53 10:53 11:114 12:208 
0.1122352458910617 1:119 2:112 3:109 4:157 5:190 6:162 7:91 8:68 9:53 10:53 11:110 12:208 
1 1:120 2:117 3:108 4:221 5:140 6:95 7:91 8:57 9:53 10:53 11:110 12:208 
0.2845349991244418 1:110 2:174 3:109 4:157 5:186 6:162 7:91 8:57 9:53 10:53 11:110 12:208 
0.01708199340040898 1:117 2:117 3:136 4:157 5:106 6:162 7:91 8:57 9:53 10:53 11:112 12:208 
0.3226067311428907 1:118 2:126 3:109 4:106 5:190 6:162 7:91 8:57 9:53 10:53 11:114 12:208 
0.3257125686492609 1:116 2:0 3:108 4:221 5:0 6:69 7:222 8:68 9:53 10:53 11:110 12:208 
0.3251951794150395 1:111 2:0 3:136 4:157 5:0 6:129 7:236 8:68 9:53 10:53 11:113 12:208 
0.3580206549620765 1:113 2:117 3:136 4:157 5:186 6:162 7:91 8:57 9:226 10:53 11:110 12:208 
0.2072980710206558 1:119 2:117 3:109 4:157 5:190 6:162 7:91 8:68 9:53 10:53 11:115 12:208 
0.2532038171949033 1:116 2:117 3:136 4:157 5:106 6:113 7:91 8:57 9:53 10:53 11:116 12:208 
0.2392810653309315 1:112 2:117 3:176 4:106 5:172 6:162 7:91 8:68 9:53 10:53 11:110 12:208 
0.2387929890050424 1:112 2:112 3:90 4:221 5:172 6:95 7:91 8:57 9:53 10:53 11:110 12:208 
0.2898987328599494 1:114 2:174 3:103 4:157 5:165 6:162 7:91 8:57 9:53 10:53 11:110 12:208 
0.2231912787969376 1:118 2:117 3:108 4:157 5:106 6:129 7:55 8:68 9:53 10:53 11:116 12:208 
0.3198564629532694 1:117 2:117 3:108 4:157 5:140 6:162 7:236 8:57 9:53 10:53 11:110 12:208 
0.313553407459158 1:115 2:112 3:108 4:115 5:143 6:162 7:55 8:57 9:53 10:53 11:110 12:208 
0.3262537389802075 1:113 2:117 3:121 4:106 5:190 6:162 7:91 8:68 9:239 10:53 11:112 12:208 
1 1:112 2:117 3:108 4:221 5:183 6:95 7:91 8:57 9:53 10:53 11:111 12:208 
0.3184217888965742 1:114 2:112 3:109 4:157 5:190 6:113 7:91 8:57 9:223 10:53 11:110 12:208 
0.0179309995553881 1:115 2:117 3:109 4:157 5:172 6:113 7:91 8:68 9:53 10:53 11:108 12:208 
0.0524890780346448 1:118 2:117 3:108 4:157 5:183 6:113 7:91 8:57 9:53 10:53 11:112 12:208 
0.2635348941197889 1:109 2:117 3:108 4:221 5:246 6:95 7:55 8:57 9:53 10:53 11:115 12:208 
1 1:111 2:174 3:108 4:221 5:143 6:95 7:91 8:57 9:53 10:53 11:111 12:208 
1 1:113 2:126 3:109 4:221 5:82 6:95 7:91 8:57 9:53 10:53 11:116 12:208 
0.0441527390331388 1:111 2:117 3:109 4:157 5:82 6:113 7:91 8:68 9:53 10:53 11:108 12:208 
0.2794715772094432 1:115 2:117 3:136 4:109 5:172 6:162 7:55 8:68 9:53 10:53 11:108 12:208 
0.3253243125046586 1:117 2:117 3:90 4:109 5:221 6:129 7:55 8:68 9:53 10:53 11:112 12:208 
1 1:117 2:117 3:122 4:221 5:246 6:95 7:91 8:57 9:53 10:53 11:116 12:208 
0.3253165812528034 1:117 2:117 3:90 4:248 5:183 6:129 7:91 8:57 9:53 10:53 11:110 12:160 
0.2597602761824701 1:109 2:117 3:108 4:157 5:165 6:113 7:55 8:57 9:53 10:53 11:112 12:208 
0.8542074707531028 1:117 2:174 3:108 4:221 5:82 6:95 7:91 8:57 9:53 10:53 11:116 12:208 
0.3253149632807768 1:117 2:174 3:136 4:157 5:172 6:129 7:55 8:68 9:53 10:53 11:110 12:208 
0.3017236262736257 1:119 2:112 3:135 4:115 5:172 6:129 7:55 8:68 9:53 10:53 11:110 12:208 
0.0006336890084982511 1:109 2:117 3:109 4:157 5:183 6:162 7:91 8:57 9:53 10:53 11:110 12:208 
0.3251964809756934 1:117 2:126 3:172 4:221 5:246 6:95 7:91 8:57 9:53 10:53 11:111 12:53 
0.2515971469119138 1:110 2:112 3:108 4:106 5:106 6:129 7:91 8:68 9:53 10:53 11:110 12:208 
0.3253064425562115 1:112 2:117 3:108 4:157 5:143 6:183 7:91 8:57 9:218 10:53 11:111 12:208 
0.3253684442820762 1:117 2:134 3:136 4:115 5:143 6:162 7:91 8:68 9:53 10:53 11:115 12:208 
0.3251594628056815 1:117 2:134 3:136 4:157 5:106 6:129 7:222 8:68 9:53 10:53 11:110 12:159 
0.3253093269648309 1:113 2:0 3:90 4:109 5:0 6:129 7:91 8:68 9:216 10:53 11:112 12:208 
0.02762363904137288 1:114 2:117 3:176 4:221 5:140 6:95 7:91 8:57 9:53 10:53 11:114 12:208 
0.1455740191477459 1:113 2:112 3:121 4:157 5:190 6:162 7:91 8:57 9:53 10:53 11:117 12:208 
0.3249951974349487 1:115 2:134 3:136 4:221 5:246 6:95 7:91 8:57 9:221 10:53 11:110 12:208 
0.3253064143984428 1:108 2:0 3:136 4:248 5:0 6:113 7:222 8:68 9:53 10:228 11:110 12:109 
0.3253625122187483 1:112 2:117 3:90 4:157 5:189 6:162 7:91 8:57 9:53 10:223 11:110 12:208 
0.2760372236633575 1:118 2:120 3:136 4:106 5:143 6:162 7:91 8:57 9:53 10:53 11:110 12:208 
0.235698727569118 1:114 2:174 3:136 4:157 5:165 6:113 7:91 8:57 9:53 10:53 11:107 12:208 
0.3247922062853236 1:110 2:117 3:108 4:157 5:82 6:113 7:91 8:68 9:235 10:53 11:110 12:208 
0.3231919867245553 1:111 2:117 3:136 4:221 5:106 6:95 7:91 8:57 9:53 10:53 11:110 12:95 
0.1741566727097923 1:119 2:174 3:108 4:109 5:143 6:162 7:91 8:57 9:53 10:53 11:111 12:208 
0.2004693039736219 1:117 2:112 3:108 4:157 5:222 6:113 7:91 8:57 9:53 10:53 11:118 12:208 
0.3249638985206091 1:111 2:112 3:136 4:115 5:143 6:129 7:55 8:57 9:53 10:53 11:110 12:208 
0.3250577478914526 1:115 2:134 3:136 4:157 5:106 6:113 7:91 8:68 9:53 10:53 11:58 12:208 
0.3252757307660457 1:118 2:0 3:176 4:157 5:0 6:162 7:91 8:57 9:53 10:53 11:57 12:208 
1 1:115 2:112 3:109 4:221 5:190 6:69 7:91 8:68 9:53 10:53 11:116 12:208 
0.3251418796187022 1:111 2:117 3:121 4:157 5:143 6:162 7:91 8:57 9:53 10:53 11:114 12:219 
0.2220327644071098 1:114 2:117 3:108 4:157 5:172 6:183 7:91 8:57 9:53 10:53 11:109 12:208 
0.2853238929673678 1:112 2:117 3:136 4:157 5:189 6:113 7:55 8:68 9:53 10:53 11:115 12:208 
0.4971376719041074 1:112 2:117 3:136 4:221 5:190 6:95 7:91 8:57 9:53 10:53 11:111 12:208 
0.128770265623696 1:108 2:117 3:136 4:157 5:190 6:113 7:91 8:57 9:53 10:53 11:108 12:208 
0.1828232744692488 1:111 2:134 3:109 4:157 5:186 6:162 7:91 8:68 9:53 10:53 11:108 12:208 
0.2534207418725959 1:113 2:0 3:103 4:157 5:0 6:183 7:91 8:57 9:53 10:53 11:115 12:208 
0.2256327591019197 1:109 2:117 3:109 4:157 5:190 6:113 7:91 8:68 9:53 10:53 11:110 12:88 
0.3255567648324109 1:110 2:117 3:109 4:109 5:82 6:129 7:91 8:68 9:53 10:224 11:110 12:53 
0.3252443772826658 1:110 2:117 3:137 4:221 5:172 6:95 7:55 8:57 9:53 10:53 11:110 12:64 
1 1:112 2:117 3:108 4:221 5:140 6:95 7:91 8:57 9:53 10:53 11:114 12:208 
0.2512986409566171 1:115 2:117 3:136 4:157 5:172 6:183 7:91 8:57 9:53 10:53 11:113 12:208 
1 1:116 2:117 3:109 4:221 5:190 6:95 7:91 8:57 9:53 10:53 11:110 12:208 
0.3001146417920249 1:115 2:117 3:109 4:115 5:190 6:162 7:91 8:57 9:53 10:53 11:110 12:0 
0.9094172186015642 1:110 2:117 3:122 4:221 5:186 6:95 7:91 8:57 9:233 10:53 11:110 12:208 
0.3252008186117046 1:115 2:112 3:109 4:106 5:106 6:129 7:91 8:68 9:53 10:53 11:114 12:126 
0.3083323941016313 1:116 2:134 3:108 4:157 5:186 6:113 7:91 8:68 9:53 10:53 11:110 12:208 
0.4824847088788475 1:111 2:117 3:108 4:221 5:140 6:95 7:91 8:57 9:53 10:220 11:112 12:208 
0.2674756388298811 1:117 2:117 3:109 4:157 5:190 6:162 7:91 8:57 9:227 10:53 11:110 12:208 
1 1:114 2:117 3:108 4:221 5:82 6:69 7:91 8:68 9:53 10:53 11:110 12:208 
1 1:110 2:117 3:108 4:221 5:172 6:95 7:91 8:57 9:53 10:53 11:110 12:95 
0.01885647019548179 1:111 2:117 3:136 4:157 5:172 6:162 7:91 8:68 9:53 10:53 11:112 12:208 
0.1763172903624742 1:116 2:117 3:136 4:106 5:106 6:162 7:222 8:68 9:53 10:53 11:110 12:208 
0.3236868680936287 1:114 2:117 3:122 4:221 5:106 6:95 7:91 8:57 9:53 10:231 11:115 12:208 
0.5834703645380517 1:115 2:0 3:136 4:221 5:0 6:69 7:55 8:68 9:53 10:53 11:110 12:208 
0.1529620974836394 1:115 2:117 3:136 4:157 5:82 6:162 7:55 8:68 9:53 10:53 11:115 12:208 
1 1:113 2:134 3:109 4:221 5:190 6:95 7:91 8:57 9:53 10:53 11:111 12:208 
0.3252458472124338 1:117 2:117 3:108 4:109 5:172 6:129 7:55 8:68 9:177 10:53 11:108 12:208 
0.1051305894969054 1:116 2:174 3:108 4:221 5:246 6:95 7:91 8:57 9:53 10:53 11:115 12:208 
0.3251569493855572 1:117 2:117 3:136 4:157 5:140 6:113 7:55 8:57 9:53 10:53 11:110 12:73 
1 1:116 2:134 3:109 4:221 5:190 6:95 7:91 8:57 9:53 10:53 11:116 12:208 
0.183075645866195 1:110 2:117 3:109 4:157 5:190 6:129 7:91 8:57 9:53 10:53 11:108 12:208 
0.2237931597597026 1:119 2:174 3:135 4:221 5:140 6:95 7:91 8:57 9:53 10:53 11:110 12:208 
0.2388054191110064 1:111 2:117 3:108 4:157 5:246 6:129 7:91 8:57 9:53 10:53 11:111 12:208 
0.1060766870306705 1:115 2:117 3:122 4:157 5:140 6:113 7:91 8:57 9:53 10:53 11:117 12:208 
0.319749974376096 1:116 2:117 3:108 4:157 5:165 6:162 7:55 8:57 9:53 10:53 11:110 12:208 
0.3252399886837562 1:113 2:112 3:108 4:106 5:222 6:129 7:91 8:57 9:53 10:53 11:110 12:136 
0.325230191322215 1:110 2:134 3:136 4:248 5:172 6:183 7:91 8:57 9:53 10:53 11:110 12:208 
0.3252185018435687 1:110 2:117 3:136 4:221 5:82 6:69 7:91 8:68 9:53 10:53 11:109 12:109 
0.2185892187028874 1:117 2:174 3:109 4:106 5:82 6:162 7:91 8:68 9:53 10:53 11:111 12:208 
0.2516135972391843 1:114 2:117 3:136 4:157 5:165 6:162 7:91 8:68 9:53 10:53 11:117 12:208 
0.3249757741277283 1:116 2:117 3:172 4:115 5:165 6:162 7:91 8:57 9:53 10:53 11:111 12:107 
0.06421604823212343 1:110 2:117 3:108 4:106 5:140 6:129 7:91 8:57 9:53 10:53 11:116 12:208 
0.3129329287196914 1:111 2:112 3:122 4:106 5:186 6:162 7:91 8:57 9:53 10:53 11:117 12:208 
1 1:113 2:117 3:121 4:221 5:190 6:95 7:91 8:57 9:53 10:53 11:110 12:0 
0.67067282661038 1:115 2:117 3:136 4:157 5:186 6:162 7:91 8:57 9:53 10:53 11:110 12:208 
0.3242616295604862 1:113 2:134 3:136 4:221 5:140 6:95 7:91 8:57 9:53 10:53 11:110 12:0 
0.2549368579983976 1:116 2:117 3:122 4:157 5:189 6:162 7:91 8:68 9:53 10:234 11:112 12:208 
0.1545898925164597 1:112 2:117 3:136 4:106 5:106 6:162 7:55 8:68 9:53 10:53 11:117 12:208 
1 1:113 2:174 3:108 4:221 5:165 6:95 7:91 8:57 9:53 10:224 11:111 12:208 
0.3250820563740526 1:109 2:0 3:108 4:157 5:0 6:162 7:91 8:68 9:223 10:53 11:110 12:208 
0.2096495260955231 1:111 2:126 3:109 4:221 5:186 6:95 7:91 8:57 9:53 10:53 11:110 12:208 
0.3378871210563547 1:111 2:117 3:108 4:157 5:82 6:162 7:91 8:68 9:227 10:53 11:110 12:208 
0.3250131834967014 1:112 2:117 3:108 4:157 5:172 6:113 7:55 8:57 9:53 10:223 11:109 12:208 
0.3251294888769574 1:120 2:174 3:136 4:157 5:165 6:129 7:91 8:57 9:53 10:53 11:108 12:208 
0.3251873319163495 1:111 2:0 3:121 4:248 5:0 6:183 7:91 8:57 9:53 10:53 11:110 12:208 
0.1064636550252351 1:108 2:117 3:108 4:157 5:246 6:113 7:91 8:57 9:53 10:53 11:109 12:208 
0.1711573665179452 1:109 2:117 3:108 4:115 5:172 6:113 7:91 8:68 9:53 10:53 11:115 12:208 
0.1842275789155676 1:114 2:117 3:135 4:157 5:165 6:113 7:91 8:57 9:53 10:53 11:108 12:208 
0.3250401545730709 1:117 2:174 3:108 4:221 5:172 6:69 7:91 8:68 9:53 10:53 11:118 12:93 
0.4023382407804534 1:111 2:117 3:122 4:157 5:190 6:162 7:91 8:68 9:53 10:53 11:112 12:208 
0.3252130936948893 1:118 2:117 3:122 4:157 5:106 6:129 7:91 8:57 9:53 10:53 11:110 12:208 
0.4240948852857002 1:110 2:117 3:121 4:157 5:190 6:162 7:91 8:68 9:53 10:53 11:116 12:208 
0.241166480405514 1:117 2:117 3:122 4:157 5:186 6:113 7:91 8:57 9:53 10:53 11:110 12:208 
0.1223057949444369 1:109 2:117 3:108 4:109 5:106 6:162 7:91 8:68 9:53 10:53 11:110 12:208 
0.8710125068554917 1:111 2:117 3:108 4:221 5:143 6:95 7:91 8:57 9:53 10:228 11:112 12:208 
0.01343144337448476 1:114 2:117 3:108 4:109 5:172 6:162 7:91 8:68 9:53 10:53 11:110 12:208 
0.05510782317095551 1:118 2:117 3:108 4:115 5:189 6:129 7:91 8:68 9:53 10:53 11:112 12:208 
0.05719895775117824 1:113 2:117 3:136 4:157 5:106 6:162 7:91 8:57 9:53 10:53 11:113 12:208 
0.1832818133865653 1:112 2:126 3:109 4:157 5:82 6:113 7:91 8:57 9:53 10:53 11:110 12:208 
0.03431002924660959 1:115 2:0 3:136 4:109 5:0 6:162 7:91 8:68 9:53 10:53 11:112 12:208 
0.04763020923502002 1:113 2:117 3:108 4:106 5:106 6:162 7:91 8:57 9:53 10:53 11:110 12:208 
0.2876247901885074 1:112 2:117 3:109 4:157 5:143 6:162 7:91 8:57 9:53 10:53 11:111 12:208 
0.3251088266776443 1:115 2:117 3:108 4:109 5:165 6:162 7:91 8:57 9:53 10:53 11:59 12:208 
1 1:114 2:117 3:136 4:221 5:140 6:95 7:91 8:57 9:53 10:53 11:111 12:208 
0.2117013987018544 1:114 2:112 3:109 4:109 5:190 6:162 7:91 8:68 9:53 10:53 11:118 12:208 
0.9864613333421003 1:113 2:117 3:136 4:106 5:190 6:162 7:91 8:57 9:53 10:53 11:110 12:208 
0.2390617220462054 1:110 2:112 3:108 4:106 5:172 6:162 7:91 8:68 9:53 10:53 11:111 12:208 
0.5012220899569743 1:118 2:117 3:109 4:221 5:140 6:95 7:91 8:57 9:53 10:53 11:110 12:208 
0.2355385898205177 1:114 2:117 3:122 4:106 5:106 6:162 7:91 8:68 9:53 10:53 11:116 12:208 
1 1:116 2:174 3:108 4:221 5:82 6:95 7:91 8:57 9:53 10:53 11:111 12:208 
0.1874510093360657 1:113 2:112 3:108 4:157 5:106 6:113 7:91 8:68 9:53 10:53 11:110 12:208 
0.3193173897463251 1:113 2:117 3:108 4:221 5:165 6:95 7:91 8:57 9:53 10:53 11:110 12:95 
1 1:118 2:117 3:136 4:221 5:143 6:95 7:91 8:57 9:53 10:53 11:111 12:208 
1 1:116 2:126 3:136 4:221 5:143 6:95 7:91 8:57 9:53 10:53 11:113 12:208 
0.3252435198786049 1:117 2:174 3:109 4:115 5:190 6:113 7:91 8:57 9:53 10:53 11:110 12:208 
0.08496528355761711 1:112 2:117 3:136 4:157 5:246 6:113 7:91 8:57 9:53 10:53 11:111 12:208 
0.3195976013290291 1:116 2:117 3:172 4:106 5:172 6:129 7:55 8:57 9:53 10:53 11:113 12:208 
0.3248449957786408 1:111 2:117 3:108 4:157 5:183 6:129 7:55 8:68 9:53 10:53 11:60 12:208 
0.3098324994971205 1:119 2:117 3:90 4:106 5:189 6:162 7:91 8:68 9:53 10:53 11:110 12:208 
0.01392896188718188 1:111 2:117 3:109 4:157 5:143 6:113 7:91 8:57 9:53 10:53 11:116 12:208 
0.2866780484012601 1:112 2:126 3:136 4:221 5:140 6:95 7:91 8:57 9:53 10:53 11:112 12:0 
0.9401257804650717 1:115 2:174 3:108 4:221 5:82 6:95 7:55 8:57 9:53 10:53 11:110 12:208 
0.3497237562234913 1:117 2:117 3:122 4:106 5:186 6:162 7:91 8:68 9:226 10:53 11:115 12:208 
0.2564093735884378 1:118 2:0 3:136 4:106 5:0 6:129 7:55 8:68 9:53 10:53 11:109 12:208 
0.325242847433831 1:116 2:117 3:122 4:221 5:106 6:69 7:222 8:68 9:53 10:53 11:110 12:63 
1 1:110 2:117 3:121 4:221 5:190 6:95 7:91 8:57 9:53 10:53 11:110 12:208 
0.219051452727999 1:117 2:117 3:136 4:106 5:82 6:113 7:91 8:57 9:53 10:53 11:116 12:208 
1 1:116 2:117 3:108 4:221 5:186 6:95 7:91 8:57 9:53 10:53 11:110 12:208 
0.3071121163216897 1:115 2:112 3:176 4:221 5:172 6:95 7:91 8:57 9:53 10:53 11:116 12:208 
0.2211557721723305 1:112 2:174 3:90 4:221 5:140 6:95 7:91 8:57 9:53 10:53 11:108 12:208 
0.3252158648166781 1:115 2:0 3:103 4:221 5:0 6:113 7:236 8:57 9:53 10:53 11:110 12:208 
0.2379196910428485 1:116 2:117 3:136 4:106 5:189 6:162 7:91 8:57 9:53 10:53 11:113 12:208 
0.1598200345025236 1:112 2:117 3:109 4:157 5:190 6:113 7:55 8:57 9:53 10:53 11:112 12:208 
0.3251194883263288 1:116 2:174 3:108 4:106 5:183 6:113 7:91 8:57 9:53 10:53 11:107 12:208 
0.6298632258715211 1:114 2:117 3:136 4:221 5:186 6:95 7:91 8:57 9:53 10:53 11:110 12:208 
0.01935195907381954 1:117 2:117 3:136 4:106 5:140 6:162 7:91 8:57 9:53 10:53 11:114 12:208 
0.3252234041027415 1:113 2:117 3:121 4:221 5:190 6:69 7:222 8:68 9:53 10:53 11:111 12:109 
0.3252398434104814 1:112 2:117 3:172 4:221 5:189 6:69 7:91 8:68 9:53 10:53 11:117 12:95 
0.3655350973644201 1:117 2:117 3:136 4:221 5:106 6:69 7:55 8:68 9:53 10:53 11:110 12:208 
0.3249899663797482 1:112 2:117 3:177 4:248 5:221 6:162 7:91 8:68 9:53 10:53 11:110 12:107 
0.1547364532450412 1:112 2:117 3:108 4:106 5:189 6:162 7:91 8:57 9:53 10:53 11:116 12:208 
0.2323916177052944 1:116 2:0 3:136 4:157 5:0 6:113 7:91 8:68 9:53 10:53 11:107 12:208 
0.226217395735508 1:111 2:117 3:108 4:221 5:106 6:69 7:91 8:68 9:53 10:53 11:110 12:95 
0.2918740963852265 1:110 2:117 3:103 4:106 5:172 6:129 7:236 8:68 9:53 10:53 11:110 12:208 
0.2399692331342546 1:108 2:117 3:108 4:221 5:189 6:95 7:91 8:57 9:53 10:53 11:110 12:208 
0.1667471648281516 1:115 2:112 3:136 4:106 5:143 6:129 7:55 8:68 9:53 10:53 11:114 12:208 
0.3435440647153218 1:113 2:117 3:136 4:106 5:140 6:129 7:91 8:57 9:53 10:53 11:114 12:208 
0.2107455569677011 1:114 2:174 3:136 4:106 5:165 6:129 7:91 8:57 9:53 10:53 11:110 12:208 
0.3202762480967576 1:112 2:117 3:176 4:109 5:172 6:129 7:55 8:68 9:53 10:53 11:110 12:208 
1 1:112 2:117 3:136 4:221 5:143 6:95 7:91 8:57 9:53 10:53 11:110 12:208 
0.4441978664650766 1:111 2:117 3:135 4:221 5:140 6:95 7:91 8:57 9:53 10:53 11:109 12:0 
0.3039920350967488 1:112 2:112 3:135 4:106 5:246 6:162 7:91 8:57 9:53 10:53 11:110 12:208 
1 1:113 2:117 3:136 4:221 5:190 6:95 7:91 8:57 9:53 10:53 11:115 12:208 
0.08971890479949689 1:111 2:117 3:108 4:106 5:189 6:162 7:91 8:68 9:53 10:53 11:117 12:208 
0.4605572730479144 1:111 2:117 3:109 4:221 5:140 6:95 7:91 8:57 9:53 10:53 11:113 12:95 
0.1832988103427005 1:115 2:0 3:122 4:109 5:0 6:162 7:91 8:68 9:53 10:53 11:108 12:208 
0.001844230952969285 1:114 2:117 3:108 4:157 5:246 6:129 7:91 8:57 9:53 10:53 11:113 12:208 
0.3252439395612961 1:109 2:117 3:136 4:157 5:143 6:162 7:91 8:68 9:218 10:53 11:110 12:208 
0.3252126911086482 1:121 2:117 3:108 4:109 5:172 6:162 7:55 8:68 9:233 10:53 11:110 12:208 
0.1193988665453794 1:119 2:117 3:108 4:157 5:106 6:162 7:91 8:68 9:53 10:53 11:114 12:208 
0.2264021538826483 1:115 2:117 3:122 4:106 5:172 6:162 7:91 8:68 9:53 10:53 11:108 12:208 
0.2252401776692417 1:111 2:117 3:108 4:157 5:140 6:113 7:55 8:68 9:53 10:53 11:114 12:208 
0.3131350619525382 1:112 2:117 3:136 4:109 5:190 6:162 7:91 8:68 9:225 10:53 11:110 12:208 
0.2704604807529534 1:116 2:117 3:109 4:157 5:82 6:162 7:91 8:57 9:53 10:222 11:110 12:208 
1 1:111 2:117 3:122 4:221 5:189 6:95 7:91 8:57 9:53 10:53 11:110 12:208 
0.2941871238237684 1:115 2:117 3:121 4:106 5:190 6:162 7:91 8:57 9:53 10:53 11:115 12:208 
1 1:119 2:117 3:109 4:221 5:106 6:95 7:91 8:57 9:53 10:53 11:110 12:208 
1 1:114 2:117 3:136 4:221 5:82 6:95 7:91 8:57 9:53 10:53 11:111 12:109 
0.2572558742581244 1:113 2:117 3:122 4:157 5:246 6:113 7:91 8:57 9:53 10:53 11:110 12:208 
1 1:117 2:117 3:121 4:221 5:190 6:95 7:91 8:57 9:53 10:53 11:113 12:208 
0.3247880857848426 1:111 2:117 3:136 4:157 5:140 6:162 7:91 8:57 9:53 10:53 11:111 12:68 
0.2481658564045651 1:112 2:117 3:108 4:115 5:82 6:162 7:91 8:68 9:53 10:53 11:109 12:208 
0.5608193291159269 1:117 2:117 3:108 4:221 5:172 6:95 7:91 8:57 9:53 10:53 11:111 12:158 
0.2958375834958162 1:109 2:117 3:109 4:157 5:190 6:162 7:55 8:57 9:53 10:53 11:115 12:0 
1 1:118 2:117 3:135 4:221 5:106 6:69 7:91 8:68 9:53 10:53 11:110 12:208 
0.3252430316031081 1:118 2:126 3:121 4:248 5:82 6:162 7:222 8:57 9:53 10:53 11:111 12:63 
0.3251559014505652 1:108 2:134 3:103 4:157 5:172 6:113 7:91 8:57 9:53 10:230 11:108 12:208 
0.02846444104615509 1:111 2:117 3:108 4:157 5:172 6:162 7:55 8:68 9:53 10:53 11:110 12:208 
0.1789715620956278 1:119 2:0 3:176 4:109 5:0 6:162 7:91 8:57 9:53 10:53 11:55 12:208 
0.3255589403976535 1:116 2:0 3:108 4:157 5:0 6:129 7:91 8:57 9:53 10:215 11:110 12:208 
0.3252000702876658 1:118 2:126 3:90 4:221 5:143 6:95 7:91 8:57 9:226 10:53 11:54 12:0 
0.2859490288105512 1:113 2:117 3:108 4:106 5:221 6:129 7:55 8:68 9:53 10:53 11:109 12:208 
0.2851662443322994 1:113 2:0 3:136 4:221 5:0 6:69 7:91 8:68 9:53 10:53 11:61 12:208 
0.1870382693973231 1:112 2:117 3:136 4:157 5:186 6:162 7:91 8:68 9:53 10:53 11:116 12:208 
0.3423401966339903 1:116 2:117 3:152 4:106 5:190 6:129 7:91 8:57 9:53 10:53 11:116 12:208 
0.3007861700349909 1:116 2:0 3:103 4:157 5:0 6:162 7:91 8:68 9:53 10:53 11:108 12:208 
0.3253526477632253 1:117 2:117 3:136 4:106 5:140 6:162 7:91 8:57 9:53 10:53 11:110 12:68 
1 1:111 2:117 3:109 4:221 5:82 6:95 7:91 8:57 9:53 10:53 11:110 12:208 
0.3146750972457745 1:109 2:174 3:137 4:221 5:246 6:95 7:91 8:57 9:53 10:53 11:118 12:208 
0.4454021953074861 1:111 2:117 3:122 4:106 5:140 6:162 7:91 8:68 9:53 10:53 11:110 12:208 
1 1:113 2:174 3:108 4:221 5:143 6:95 7:91 8:57 9:53 10:53 11:114 12:208 
0.08602086374968376 1:113 2:117 3:108 4:221 5:189 6:95 7:91 8:57 9:227 10:53 11:110 12:208 
0.220084464641333 1:113 2:117 3:103 4:115 5:172 6:129 7:91 8:68 9:53 10:53 11:110 12:208 
1 1:115 2:117 3:137 4:221 5:246 6:95 7:91 8:57 9:53 10:53 11:110 12:208 
1 1:109 2:117 3:109 4:221 5:143 6:95 7:91 8:57 9:53 10:53 11:111 12:208 
0.1543724138917303 1:115 2:117 3:103 4:106 5:186 6:162 7:91 8:68 9:53 10:53 11:112 12:208 
0.2346848282107978 1:110 2:112 3:109 4:157 5:190 6:113 7:91 8:68 9:53 10:53 11:108 12:208 
0.2785843137290186 1:116 2:174 3:136 4:157 5:140 6:113 7:91 8:57 9:53 10:53 11:108 12:208 
0.3251975076407774 1:115 2:117 3:109 4:157 5:82 6:162 7:55 8:68 9:53 10:227 11:110 12:208 
0.3252821744539271 1:110 2:117 3:109 4:157 5:82 6:113 7:222 8:57 9:53 10:53 11:111 12:94 
1 1:119 2:117 3:108 4:221 5:140 6:95 7:91 8:57 9:53 10:53 11:110 12:208 
0.02276108260649985 1:113 2:117 3:109 4:115 5:190 6:129 7:91 8:68 9:53 10:53 11:110 12:208 
0.2083679010895362 1:116 2:112 3:108 4:106 5:143 6:162 7:91 8:68 9:53 10:53 11:114 12:208 
0.8134088551964945 1:109 2:117 3:122 4:221 5:246 6:95 7:91 8:57 9:53 10:53 11:110 12:208 
1 1:111 2:117 3:108 4:221 5:222 6:95 7:91 8:57 9:53 10:53 11:110 12:208 
0.2939180382417449 1:117 2:117 3:108 4:106 5:140 6:113 7:91 8:57 9:53 10:53 11:116 12:208 
0.325534098119391 1:110 2:117 3:127 4:248 5:190 6:162 7:222 8:57 9:53 10:53 11:112 12:61 
0.3251885605766373 1:110 2:174 3:109 4:157 5:190 6:113 7:222 8:57 9:53 10:53 11:108 12:63 
0.09140667575844214 1:116 2:0 3:108 4:157 5:0 6:113 7:91 8:68 9:53 10:53 11:110 12:208 
0.01956463240842141 1:113 2:117 3:136 4:106 5:190 6:129 7:91 8:68 9:53 10:53 11:110 12:208 
0.2890692716043044 1:120 2:0 3:176 4:221 5:0 6:95 7:91 8:57 9:53 10:53 11:61 12:208 
0.3251904883472722 1:118 2:126 3:90 4:221 5:143 6:95 7:91 8:57 9:53 10:225 11:110 12:95 
1 1:111 2:117 3:109 4:221 5:143 6:95 7:55 8:57 9:53 10:53 11:111 12:208 
0.05265132340452654 1:113 2:112 3:108 4:106 5:106 6:129 7:91 8:68 9:53 10:53 11:112 12:208 
0.2092875018007292 1:110 2:117 3:109 4:157 5:190 6:162 7:91 8:57 9:53 10:53 11:117 12:208 
0.4123371429403052 1:111 2:117 3:122 4:221 5:246 6:95 7:91 8:57 9:53 10:53 11:116 12:208 
0.302342966462134 1:116 2:134 3:109 4:157 5:106 6:162 7:91 8:57 9:53 10:53 11:117 12:208 
0.6522491263365537 1:121 2:117 3:108 4:221 5:82 6:69 7:91 8:68 9:53 10:53 11:110 12:208 
1 1:111 2:117 3:108 4:221 5:246 6:95 7:91 8:57 9:53 10:53 11:111 12:208 
0.3226005422103796 1:114 2:117 3:109 4:221 5:190 6:95 7:222 8:57 9:53 10:53 11:110 12:68 
1 1:117 2:117 3:136 4:221 5:186 6:95 7:91 8:57 9:53 10:53 11:110 12:208 
0.3253267256696535 1:115 2:120 3:108 4:106 5:186 6:162 7:91 8:68 9:235 10:53 11:110 12:208 
0.2896494150260424 1:113 2:134 3:136 4:221 5:143 6:95 7:91 8:57 9:53 10:53 11:117 12:208 
1 1:115 2:117 3:109 4:221 5:186 6:95 7:91 8:57 9:53 10:53 11:110 12:208 
0.07272398906942737 1:118 2:117 3:136 4:106 5:172 6:129 7:55 8:68 9:53 10:53 11:114 12:208 
0.254950840700719 1:108 2:117 3:122 4:157 5:106 6:113 7:91 8:68 9:53 10:53 11:110 12:208 
0.271581623213201 1:115 2:120 3:108 4:109 5:183 6:162 7:55 8:57 9:53 10:53 11:110 12:208 
0.3054980674883735 1:111 2:174 3:136 4:106 5:172 6:129 7:91 8:57 9:53 10:53 11:115 12:208 
1 1:116 2:117 3:109 4:221 5:190 6:95 7:91 8:57 9:53 10:53 11:115 12:208 
0.2984438681327351 1:109 2:117 3:136 4:157 5:189 6:162 7:55 8:68 9:53 10:53 11:110 12:208 
0.3142418953040972 1:110 2:117 3:108 4:157 5:172 6:129 7:91 8:68 9:53 10:53 11:110 12:95 
0.2264720703920868 1:116 2:117 3:122 4:157 5:106 6:113 7:91 8:68 9:53 10:53 11:117 12:208 
0.2268239237559797 1:112 2:0 3:136 4:106 5:0 6:129 7:91 8:57 9:53 10:53 11:110 12:208 
1 1:115 2:117 3:108 4:221 5:140 6:95 7:91 8:57 9:53 10:53 11:114 12:208 
0.2238489603980123 1:111 2:117 3:177 4:221 5:140 6:95 7:91 8:57 9:53 10:53 11:114 12:95 
0.5983727022912614 1:108 2:117 3:136 4:157 5:82 6:162 7:91 8:57 9:53 10:53 11:115 12:208 
0.3252445342424062 1:120 2:120 3:108 4:109 5:82 6:129 7:91 8:68 9:53 10:53 11:110 12:109 
0.02669900567838385 1:110 2:117 3:109 4:157 5:172 6:162 7:91 8:57 9:53 10:53 11:116 12:208 
1 1:117 2:174 3:136 4:221 5:82 6:95 7:91 8:57 9:53 10:53 11:112 12:208 
0.318600331979802 1:109 2:126 3:136 4:157 5:143 6:162 7:91 8:68 9:53 10:53 11:112 12:208 
1 1:116 2:117 3:108 4:221 5:189 6:95 7:91 8:57 9:53 10:53 11:111 12:208 
0.2541683594723574 1:110 2:117 3:136 4:106 5:106 6:129 7:91 8:68 9:53 10:53 11:118 12:208 
0.3251710149777987 1:112 2:0 3:136 4:157 5:0 6:162 7:91 8:57 9:53 10:53 11:110 12:0 
0.06533930146138192 1:113 2:117 3:136 4:221 5:165 6:95 7:91 8:57 9:53 10:53 11:115 12:95 
0.3251583741322294 1:114 2:117 3:109 4:157 5:246 6:129 7:222 8:57 9:53 10:53 11:110 12:0 
0.03523907990505834 1:114 2:117 3:122 4:221 5:140 6:95 7:91 8:57 9:221 10:53 11:110 12:208 
0.012975480523744 1:112 2:117 3:108 4:106 5:106 6:162 7:55 8:68 9:53 10:53 11:110 12:208 
0.04206194784011097 1:110 2:0 3:136 4:157 5:0 6:113 7:91 8:68 9:53 10:53 11:61 12:208 
0.5063526176755664 1:122 2:174 3:152 4:221 5:190 6:95 7:91 8:57 9:53 10:53 11:110 12:208 
0.2256054624930117 1:111 2:117 3:136 4:106 5:172 6:162 7:55 8:68 9:53 10:53 11:110 12:208 
0.287846004179294 1:108 2:117 3:122 4:157 5:172 6:162 7:91 8:57 9:53 10:53 11:109 12:208 
0.3084649898375421 1:112 2:112 3:136 4:157 5:172 6:162 7:222 8:57 9:53 10:53 11:115 12:208 
1 1:115 2:117 3:109 4:221 5:190 6:95 7:91 8:57 9:53 10:53 11:110 12:208 
0.3193521232724127 1:120 2:120 3:136 4:157 5:143 6:113 7:55 8:68 9:53 10:53 11:110 12:208 
0.1898115023028 1:112 2:134 3:109 4:157 5:106 6:162 7:91 8:68 9:53 10:53 11:117 12:208 
0.1927562824961437 1:115 2:112 3:109 4:157 5:190 6:113 7:91 8:57 9:53 10:53 11:114 12:208 
1 1:118 2:117 3:108 4:221 5:246 6:95 7:91 8:57 9:53 10:53 11:112 12:208 
1 1:116 2:117 3:109 4:221 5:186 6:95 7:91 8:57 9:53 10:53 11:110 12:208 
0.2613236919873094 1:119 2:112 3:109 4:106 5:190 6:162 7:55 8:68 9:53 10:53 11:110 12:208 
0.1823948660295597 1:112 2:112 3:103 4:221 5:190 6:95 7:91 8:57 9:53 10:53 11:112 12:208 
1 1:120 2:117 3:121 4:221 5:190 6:95 7:91 8:57 9:53 10:53 11:116 12:208 
0.3255682403246849 1:115 2:117 3:108 4:157 5:189 6:113 7:91 8:68 9:53 10:53 11:110 12:219 
0.3252430676024469 1:111 2:117 3:108 4:221 5:140 6:95 7:91 8:57 9:233 10:53 11:110 12:0 
0.0492131730206563 1:116 2:117 3:109 4:106 5:140 6:162 7:91 8:57 9:53 10:53 11:114 12:208 
1 1:112 2:117 3:136 4:221 5:140 6:95 7:55 8:57 9:53 10:53 11:110 12:208 
1 1:113 2:112 3:108 4:221 5:222 6:95 7:91 8:57 9:53 10:53 11:110 12:208 
1 1:115 2:117 3:108 4:221 5:189 6:95 7:91 8:57 9:53 10:53 11:115 12:208 
0.2891568599908886 1:116 2:117 3:136 4:115 5:106 6:113 7:91 8:57 9:53 10:53 11:114 12:208 
0.2305187216649786 1:110 2:117 3:136 4:106 5:140 6:129 7:91 8:68 9:53 10:53 11:108 12:208 
0.3251612119299587 1:112 2:0 3:108 4:106 5:0 6:162 7:222 8:68 9:53 10:53 11:111 12:61 
0.2840859187323429 1:110 2:117 3:109 4:106 5:143 6:162 7:91 8:57 9:227 10:53 11:115 12:208 
0.05644366514280647 1:116 2:117 3:108 4:109 5:106 6:113 7:91 8:68 9:53 10:53 11:110 12:208 
0.2907180191702288 1:111 2:117 3:108 4:106 5:106 6:129 7:91 8:68 9:53 10:53 11:110 12:83 
1 1:118 2:174 3:152 4:221 5:190 6:95 7:91 8:57 9:53 10:53 11:114 12:208 
0.2812922989629695 1:110 2:117 3:136 4:115 5:172 6:162 7:55 8:68 9:53 10:53 11:112 12:208 
0.3251599428603445 1:111 2:174 3:108 4:221 5:82 6:183 7:91 8:68 9:53 10:53 11:110 12:53 
0.1655301146311602 1:116 2:117 3:108 4:115 5:106 6:162 7:91 8:68 9:53 10:53 11:113 12:208 
0.2302037443254448 1:117 2:112 3:136 4:157 5:172 6:162 7:91 8:57 9:53 10:53 11:109 12:208 
0.1304576099687819 1:114 2:117 3:136 4:109 5:172 6:162 7:91 8:68 9:53 10:53 11:108 12:208 
1 1:113 2:117 3:108 4:221 5:106 6:69 7:91 8:68 9:53 10:53 11:110 12:208 
0.4851646554495004 1:118 2:174 3:136 4:221 5:143 6:95 7:91 8:57 9:53 10:53 11:112 12:208 
0.2895339531310864 1:109 2:117 3:108 4:221 5:106 6:95 7:91 8:57 9:53 10:53 11:110 12:0 
0.1054324350240929 1:113 2:120 3:108 4:106 5:106 6:162 7:91 8:68 9:53 10:53 11:113 12:208 
0.3251460103351416 1:116 2:174 3:136 4:157 5:246 6:162 7:91 8:57 9:53 10:228 11:110 12:208 
0.4930721960627674 1:117 2:117 3:108 4:221 5:140 6:95 7:222 8:57 9:53 10:53 11:110 12:208 
0.3247730838316682 1:116 2:134 3:136 4:115 5:106 6:162 7:91 8:57 9:53 10:53 11:110 12:208 
0.191984785151207 1:121 2:0 3:122 4:109 5:0 6:162 7:91 8:68 9:53 10:53 11:54 12:208 
0.2032395165542498 1:110 2:126 3:136 4:157 5:140 6:113 7:91 8:57 9:53 10:53 11:114 12:208 
0.1581640772668797 1:111 2:174 3:136 4:221 5:140 6:95 7:91 8:57 9:53 10:53 11:114 12:208 
0.2412517004243701 1:116 2:117 3:136 4:221 5:106 6:95 7:91 8:57 9:53 10:53 11:116 12:208 
1 1:114 2:112 3:109 4:106 5:222 6:162 7:91 8:57 9:53 10:53 11:110 12:208 
0.2694174654069948 1:117 2:117 3:109 4:157 5:143 6:129 7:55 8:68 9:53 10:53 11:115 12:208 
0.9100691877107374 1:116 2:117 3:103 4:157 5:172 6:162 7:91 8:68 9:53 10:53 11:114 12:208 
0.1150201892273863 1:113 2:117 3:108 4:157 5:186 6:162 7:55 8:68 9:53 10:53 11:110 12:208 
0.2106323162467711 1:108 2:117 3:136 4:157 5:172 6:129 7:91 8:68 9:53 10:53 11:110 12:208 
0.2507304496706523 1:113 2:117 3:108 4:157 5:82 6:162 7:91 8:57 9:53 10:234 11:111 12:208 
0.2786916228025946 1:109 2:117 3:136 4:157 5:165 6:113 7:55 8:57 9:53 10:53 11:107 12:208 
0.08191626600325307 1:118 2:117 3:135 4:221 5:172 6:95 7:91 8:57 9:53 10:53 11:110 12:208 
0.3108545041295181 1:119 2:0 3:137 4:221 5:0 6:95 7:91 8:57 9:53 10:53 11:110 12:208 
0.3251366192731742 1:115 2:174 3:177 4:109 5:172 6:129 7:91 8:68 9:53 10:53 11:109 12:160 
0.3238306150380375 1:118 2:117 3:108 4:221 5:246 6:95 7:91 8:57 9:53 10:53 11:117 12:208 
0.7244253514459407 1:116 2:117 3:121 4:221 5:190 6:95 7:55 8:57 9:53 10:53 11:114 12:208 
0.3252360186137568 1:114 2:117 3:172 4:221 5:140 6:95 7:91 8:57 9:53 10:229 11:111 12:208 
0.2412660148811781 1:109 2:117 3:136 4:157 5:172 6:162 7:91 8:57 9:53 10:53 11:118 12:208 
1 1:111 2:117 3:103 4:221 5:186 6:95 7:91 8:57 9:53 10:53 11:110 12:208 
0.2638863604335138 1:114 2:112 3:136 4:157 5:172 6:113 7:55 8:57 9:53 10:53 11:110 12:208 
0.3242622920840984 1:117 2:120 3:136 4:157 5:158 6:162 7:55 8:57 9:53 10:53 11:112 12:208 
0.2941691299660953 1:117 2:117 3:108 4:157 5:172 6:129 7:55 8:68 9:53 10:53 11:110 12:68 
1 1:115 2:174 3:152 4:221 5:190 6:95 7:91 8:57 9:53 10:53 11:111 12:208 
1 1:109 2:117 3:122 4:221 5:143 6:95 7:91 8:57 9:53 10:53 11:118 12:208 
0.3251270386970481 1:114 2:117 3:172 4:157 5:106 6:113 7:91 8:68 9:53 10:53 11:110 12:95 
1 1:113 2:117 3:108 4:221 5:82 6:95 7:91 8:57 9:53 10:53 11:115 12:208 
1 1:115 2:120 3:109 4:221 5:143 6:95 7:91 8:57 9:53 10:53 11:110 12:208 
0.2716789818978722 1:114 2:0 3:103 4:157 5:0 6:162 7:91 8:57 9:53 10:53 11:116 12:208 
0.3246924773600137 1:113 2:112 3:108 4:109 5:106 6:129 7:91 8:68 9:225 10:53 11:114 12:208 
0.2880423092748923 1:117 2:117 3:108 4:221 5:183 6:95 7:91 8:57 9:53 10:53 11:110 12:0 
0.06166974207911191 1:112 2:117 3:108 4:157 5:82 6:113 7:55 8:68 9:53 10:53 11:108 12:208 
0.2656823971264513 1:111 2:117 3:108 4:157 5:189 6:162 7:55 8:57 9:53 10:53 11:114 12:208 
1 1:118 2:117 3:152 4:221 5:190 6:95 7:91 8:57 9:53 10:53 11:112 12:208 
0.3109849797538961 1:112 2:117 3:136 4:157 5:190 6:162 7:91 8:68 9:232 10:53 11:113 12:208 
1 1:118 2:117 3:109 4:157 5:190 6:162 7:91 8:57 9:53 10:53 11:110 12:208 
0.3252454195653681 1:114 2:117 3:109 4:106 5:186 6:113 7:91 8:68 9:228 10:53 11:113 12:208 
1 1:117 2:134 3:136 4:221 5:143 6:95 7:91 8:57 9:53 10:53 11:110 12:208 
0.3251207122140166 1:116 2:134 3:152 4:157 5:190 6:129 7:91 8:57 9:53 10:53 11:110 12:208 
0.3148481524442742 1:118 2:117 3:121 4:248 5:190 6:162 7:91 8:68 9:53 10:53 11:110 12:208 
1 1:117 2:117 3:136 4:106 5:106 6:162 7:91 8:57 9:53 10:53 11:110 12:208 
0.2971800240491792 1:120 2:134 3:108 4:157 5:106 6:113 7:91 8:57 9:53 10:53 11:110 12:208 
0.06096147860414762 1:114 2:117 3:108 4:157 5:82 6:162 7:92 8:57 9:53 10:53 11:110 12:208 
0.3021349449401748 1:114 2:0 3:176 4:221 5:0 6:95 7:91 8:57 9:221 10:53 11:111 12:208 
0.3039605692145128 1:112 2:117 3:108 4:115 5:82 6:113 7:91 8:68 9:53 10:53 11:110 12:208 
1 1:118 2:117 3:136 4:221 5:140 6:95 7:91 8:57 9:53 10:53 11:110 12:208 
0.3250469900597568 1:119 2:117 3:172 4:106 5:189 6:162 7:55 8:57 9:53 10:53 11:110 12:208 
0.3251146678615126 1:110 2:117 3:135 4:157 5:140 6:183 7:55 8:57 9:53 10:53 11:116 12:208 
0.3221599972474404 1:112 2:117 3:136 4:106 5:82 6:129 7:91 8:68 9:53 10:53 11:110 12:93 
0.3032422941845216 1:110 2:120 3:122 4:157 5:143 6:162 7:91 8:68 9:53 10:53 11:110 12:208 
0.3165835314070758 1:119 2:126 3:108 4:106 5:143 6:129 7:91 8:68 9:53 10:53 11:110 12:208 
0.4514818073279681 1:119 2:117 3:108 4:221 5:189 6:69 7:55 8:68 9:53 10:53 11:110 12:208 
0.2360654826686905 1:114 2:120 3:136 4:109 5:106 6:162 7:55 8:68 9:53 10:53 11:110 12:208 
0.2551784311885139 1:114 2:117 3:103 4:157 5:172 6:113 7:55 8:57 9:53 10:53 11:110 12:208 
0.3252450481322777 1:113 2:117 3:121 4:157 5:172 6:162 7:91 8:68 9:53 10:53 11:109 12:88 
1 1:116 2:126 3:109 4:221 5:82 6:95 7:91 8:57 9:53 10:53 11:113 12:208 
0.1557880561377572 1:113 2:112 3:122 4:157 5:106 6:162 7:91 8:68 9:53 10:53 11:114 12:208 
0.3248719038221519 1:111 2:117 3:109 4:106 5:143 6:129 7:91 8:68 9:53 10:53 11:110 12:50 
0.2892137660719601 1:113 2:117 3:136 4:115 5:106 6:113 7:91 8:57 9:53 10:53 11:110 12:208 
0.5809568751582906 1:111 2:117 3:109 4:157 5:82 6:162 7:91 8:57 9:53 10:53 11:111 12:208 
0.7302900180652567 1:116 2:117 3:108 4:157 5:82 6:162 7:55 8:57 9:53 10:53 11:114 12:208 
0.05912812517762844 1:114 2:117 3:136 4:157 5:172 6:113 7:91 8:57 9:53 10:53 11:58 12:208 
0.3221133066122607 1:120 2:117 3:108 4:106 5:82 6:129 7:91 8:68 9:53 10:228 11:109 12:208 
0.1675337240317185 1:116 2:120 3:108 4:157 5:106 6:129 7:55 8:68 9:53 10:53 11:110 12:208 
0.3250723490114333 1:115 2:117 3:108 4:221 5:246 6:95 7:55 8:57 9:221 10:53 11:110 12:208 
1 1:115 2:174 3:121 4:221 5:82 6:95 7:91 8:57 9:53 10:53 11:111 12:208 
0.3366261311442621 1:112 2:117 3:135 4:221 5:183 6:95 7:91 8:57 9:220 10:53 11:115 12:208 
1 1:116 2:117 3:103 4:221 5:186 6:95 7:91 8:57 9:53 10:53 11:113 12:208 
0.1631838761803543 1:112 2:0 3:108 4:106 5:0 6:129 7:55 8:68 9:53 10:53 11:111 12:208 
0.3250973971804776 1:113 2:126 3:108 4:221 5:172 6:95 7:222 8:57 9:53 10:53 11:121 12:95 
0.3254121405295945 1:116 2:134 3:136 4:221 5:106 6:95 7:222 8:57 9:53 10:53 11:108 12:208 
0.2653847042649281 1:110 2:117 3:122 4:221 5:183 6:95 7:55 8:57 9:53 10:53 11:110 12:208 
0.4129897255526192 1:114 2:120 3:108 4:221 5:106 6:95 7:55 8:57 9:53 10:53 11:110 12:208 
0.3254236047130383 1:116 2:117 3:136 4:106 5:189 6:129 7:236 8:57 9:53 10:53 11:113 12:109 
0.3251147387230231 1:118 2:117 3:90 4:221 5:172 6:69 7:55 8:68 9:221 10:53 11:113 12:208 
0.36719158272695 1:119 2:117 3:122 4:221 5:189 6:69 7:91 8:68 9:53 10:53 11:110 12:86 
0.2881084982018843 1:115 2:0 3:136 4:157 5:0 6:113 7:91 8:68 9:177 10:53 11:112 12:208 
0.3250811649585937 1:114 2:134 3:136 4:157 5:222 6:162 7:55 8:57 9:53 10:53 11:110 12:208 
1 1:119 2:126 3:135 4:221 5:246 6:69 7:91 8:68 9:53 10:53 11:110 12:208 
0.7359590398965736 1:116 2:117 3:109 4:157 5:172 6:162 7:91 8:57 9:53 10:53 11:113 12:95 
0.2818245985921766 1:111 2:174 3:121 4:106 5:190 6:129 7:91 8:68 9:53 10:53 11:114 12:208 
0.655850697311871 1:111 2:126 3:108 4:221 5:140 6:95 7:91 8:57 9:53 10:228 11:112 12:208 
0.5172823020315185 1:117 2:117 3:122 4:106 5:140 6:162 7:91 8:57 9:53 10:53 11:110 12:208 
0.8294660407469683 1:111 2:117 3:122 4:221 5:246 6:95 7:91 8:57 9:53 10:53 11:115 12:208 
0.3251073619071301 1:115 2:174 3:136 4:221 5:82 6:95 7:91 8:57 9:221 10:53 11:110 12:208 
0.2389677729092388 1:112 2:117 3:136 4:109 5:246 6:129 7:55 8:57 9:53 10:53 11:110 12:208 
0.3149552827570682 1:114 2:0 3:135 4:157 5:0 6:113 7:91 8:57 9:223 10:53 11:109 12:208 
0.2226457311300613 1:117 2:117 3:108 4:109 5:106 6:129 7:55 8:68 9:53 10:53 11:117 12:208 
0.2473159745419196 1:113 2:117 3:108 4:106 5:140 6:162 7:91 8:57 9:225 10:53 11:115 12:208 
0.3249675333988114 1:119 2:0 3:108 4:109 5:0 6:162 7:55 8:68 9:53 10:53 11:55 12:208 
0.1102184970917074 1:116 2:117 3:135 4:157 5:189 6:162 7:55 8:57 9:53 10:53 11:110 12:208 
0.3251636676989477 1:110 2:117 3:135 4:106 5:140 6:162 7:236 8:57 9:53 10:53 11:110 12:208 
0.3348863823110639 1:114 2:117 3:136 4:221 5:140 6:95 7:91 8:57 9:53 10:220 11:115 12:208 
0.2645721202602567 1:119 2:117 3:121 4:106 5:143 6:162 7:91 8:68 9:53 10:53 11:118 12:208 
0.1942612678783479 1:112 2:117 3:122 4:157 5:222 6:162 7:91 8:57 9:53 10:53 11:112 12:208 
1 1:116 2:112 3:109 4:157 5:190 6:162 7:91 8:68 9:53 10:53 11:110 12:208 
0.1682220197139718 1:121 2:134 3:121 4:221 5:190 6:95 7:91 8:57 9:53 10:53 11:108 12:208 
0.2354219922778719 1:110 2:117 3:136 4:157 5:183 6:113 7:91 8:68 9:53 10:53 11:115 12:208 
0.3622095979594316 1:117 2:117 3:108 4:221 5:106 6:95 7:91 8:57 9:53 10:53 11:117 12:208 
0.7862242953772174 1:117 2:117 3:108 4:106 5:172 6:129 7:91 8:68 9:53 10:53 11:118 12:208 
0.3153337999439156 1:112 2:174 3:136 4:157 5:172 6:162 7:91 8:57 9:53 10:53 11:114 12:208 
0.2573746758041336 1:113 2:174 3:108 4:248 5:140 6:162 7:91 8:57 9:53 10:53 11:110 12:208 
0.3257089397636125 1:110 2:117 3:135 4:221 5:165 6:95 7:91 8:57 9:220 10:53 11:110 12:95 
0.3253413840394768 1:109 2:117 3:108 4:157 5:106 6:129 7:91 8:57 9:53 10:215 11:112 12:208 
1 1:111 2:117 3:136 4:221 5:82 6:95 7:91 8:57 9:53 10:53 11:118 12:208 
0.3251011625295103 1:115 2:117 3:108 4:157 5:183 6:183 7:236 8:57 9:53 10:53 11:110 12:208 
0.3201424175807806 1:114 2:117 3:109 4:106 5:82 6:162 7:91 8:68 9:53 10:230 11:117 12:208 
0.3250204037039477 1:119 2:117 3:136 4:106 5:189 6:162 7:91 8:57 9:225 10:53 11:115 12:208 
0.03240727562253148 1:108 2:117 3:136 4:157 5:172 6:162 7:91 8:57 9:53 10:53 11:115 12:208 
1 1:111 2:117 3:103 4:221 5:140 6:95 7:91 8:57 9:53 10:53 11:112 12:208 
0.7027956929432555 1:119 2:134 3:108 4:221 5:143 6:95 7:91 8:57 9:53 10:53 11:110 12:208 
0.2564155932266334 1:108 2:117 3:136 4:157 5:106 6:162 7:55 8:68 9:53 10:53 11:111 12:208 
0.3203547515027551 1:112 2:134 3:136 4:221 5:106 6:95 7:55 8:57 9:53 10:53 11:110 12:208 
0.3253611461091749 1:113 2:117 3:136 4:248 5:190 6:129 7:55 8:57 9:53 10:53 11:110 12:208 
1 1:118 2:174 3:122 4:221 5:190 6:95 7:91 8:57 9:53 10:53 11:111 12:208 
0.310872266776732 1:114 2:117 3:109 4:106 5:172 6:162 7:222 8:57 9:53 10:53 11:110 12:61 
0.1425116411349805 1:120 2:117 3:109 4:221 5:106 6:69 7:91 8:68 9:235 10:53 11:109 12:208 
0.2947187022554251 1:113 2:117 3:109 4:157 5:143 6:113 7:91 8:57 9:53 10:220 11:110 12:208 
0.3250693896355477 1:114 2:112 3:90 4:157 5:172 6:113 7:55 8:57 9:53 10:53 11:62 12:208 
1 1:117 2:112 3:109 4:221 5:222 6:95 7:91 8:57 9:53 10:53 11:110 12:208 
0.3251682481798124 1:117 2:134 3:90 4:106 5:172 6:162 7:91 8:68 9:53 10:53 11:110 12:208 
0.159536127365101 1:109 2:117 3:136 4:106 5:143 6:129 7:91 8:68 9:53 10:53 11:110 12:208 
0.3186031653440735 1:108 2:117 3:136 4:157 5:165 6:113 7:91 8:68 9:53 10:53 11:110 12:208 
0.3209126007943346 1:114 2:112 3:109 4:157 5:190 6:162 7:91 8:57 9:53 10:229 11:116 12:208 
0.3119693674574548 1:108 2:117 3:136 4:157 5:183 6:162 7:55 8:57 9:53 10:53 11:112 12:208 
1 1:113 2:117 3:136 4:221 5:143 6:95 7:91 8:57 9:53 10:53 11:110 12:208 
1 1:110 2:117 3:135 4:221 5:189 6:69 7:91 8:68 9:53 10:53 11:110 12:208 
0.2259844249085836 1:114 2:134 3:108 4:106 5:106 6:113 7:91 8:68 9:53 10:53 11:109 12:208 
0.5087430551565 1:114 2:117 3:152 4:221 5:190 6:95 7:91 8:57 9:53 10:229 11:113 12:208 
0.3452969095113809 1:118 2:112 3:108 4:115 5:222 6:162 7:91 8:57 9:53 10:53 11:110 12:208 
0.7149915027655896 1:120 2:112 3:136 4:221 5:140 6:95 7:91 8:57 9:53 10:53 11:110 12:208 
0.2628182680152231 1:121 2:0 3:172 4:106 5:0 6:162 7:91 8:57 9:53 10:53 11:110 12:208 
1 1:115 2:117 3:109 4:221 5:140 6:95 7:91 8:57 9:53 10:53 11:110 12:208 
1 1:117 2:117 3:109 4:221 5:106 6:95 7:91 8:57 9:53 10:53 11:110 12:208 
0.007422752597336865 1:114 2:117 3:135 4:157 5:183 6:113 7:91 8:57 9:53 10:53 11:112 12:208 
0.1378217026335916 1:117 2:117 3:176 4:106 5:189 6:162 7:91 8:68 9:53 10:53 11:110 12:208 
0.2507076321291379 1:114 2:117 3:137 4:106 5:246 6:129 7:55 8:57 9:53 10:53 11:110 12:208 
0.3250685089108954 1:111 2:174 3:108 4:157 5:82 6:162 7:91 8:57 9:53 10:53 11:111 12:0 
0.3250624399659718 1:109 2:117 3:136 4:157 5:172 6:183 7:55 8:68 9:53 10:53 11:61 12:208 
0.2188073169158538 1:115 2:117 3:137 4:157 5:183 6:113 7:91 8:57 9:53 10:53 11:59 12:208 
0.3081639799478169 1:112 2:117 3:176 4:221 5:222 6:95 7:91 8:57 9:53 10:53 11:110 12:208 
0.3200903757374541 1:112 2:120 3:108 4:115 5:172 6:183 7:55 8:68 9:53 10:53 11:110 12:208 
0.3251819396499731 1:117 2:117 3:136 4:157 5:172 6:162 7:55 8:68 9:53 10:53 11:114 12:507 
1 1:113 2:112 3:109 4:221 5:140 6:95 7:91 8:57 9:53 10:53 11:110 12:208 
0.3250475858963213 1:116 2:0 3:109 4:157 5:0 6:113 7:55 8:68 9:53 10:53 11:110 12:64 
0.3250280635025309 1:119 2:0 3:135 4:115 5:0 6:113 7:91 8:57 9:228 10:53 11:110 12:208 
0.5793190412914579 1:117 2:174 3:108 4:157 5:165 6:162 7:91 8:57 9:53 10:53 11:113 12:208 
0.2285398034902725 1:112 2:134 3:136 4:157 5:186 6:162 7:91 8:57 9:53 10:53 11:111 12:208 
0.7422603973961788 1:111 2:112 3:109 4:157 5:190 6:162 7:91 8:57 9:53 10:53 11:111 12:208 
0.1333443505454505 1:115 2:0 3:108 4:109 5:0 6:162 7:91 8:68 9:53 10:53 11:61 12:208 
0.3252386596077988 1:110 2:117 3:109 4:157 5:82 6:113 7:222 8:57 9:53 10:53 11:110 12:0 
1 1:117 2:117 3:109 4:221 5:82 6:95 7:91 8:57 9:53 10:53 11:111 12:208 
0.3254975003585924 1:112 2:117 3:136 4:106 5:143 6:129 7:91 8:57 9:53 10:53 11:115 12:114 
0.2062743590763528 1:116 2:174 3:108 4:106 5:140 6:113 7:91 8:57 9:53 10:53 11:110 12:208 
0.1346552444913448 1:110 2:117 3:108 4:157 5:143 6:113 7:91 8:68 9:53 10:53 11:108 12:208 
1 1:114 2:112 3:109 4:221 5:190 6:95 7:91 8:57 9:53 10:53 11:110 12:208 
0.3146107907929883 1:108 2:0 3:136 4:157 5:0 6:113 7:91 8:57 9:223 10:53 11:111 12:208 
0.2572836632442909 1:117 2:174 3:109 4:221 5:172 6:95 7:91 8:57 9:53 10:53 11:107 12:208 
0.9118848008578549 1:112 2:112 3:108 4:221 5:106 6:69 7:91 8:68 9:53 10:53 11:112 12:208 
0.2727599855510948 1:116 2:117 3:109 4:157 5:82 6:162 7:55 8:68 9:53 10:53 11:110 12:208 
0.4038761176273532 1:109 2:117 3:136 4:221 5:140 6:95 7:91 8:57 9:53 10:53 11:115 12:208 
1 1:118 2:134 3:108 4:106 5:143 6:162 7:91 8:68 9:53 10:53 11:111 12:208 
0.1919491167940076 1:116 2:134 3:108 4:221 5:186 6:95 7:91 8:57 9:53 10:53 11:110 12:208 
1 1:119 2:117 3:108 4:221 5:106 6:95 7:91 8:57 9:53 10:53 11:114 12:208 
0.1606204220798642 1:117 2:117 3:108 4:115 5:140 6:113 7:91 8:57 9:53 10:53 11:110 12:208 
0.3250464186933067 1:111 2:117 3:136 4:106 5:172 6:129 7:222 8:57 9:53 10:53 11:110 12:159 
0.2716891256518756 1:119 2:174 3:137 4:106 5:82 6:162 7:91 8:68 9:53 10:53 11:113 12:208 
1 1:114 2:117 3:136 4:221 5:143 6:69 7:91 8:68 9:53 10:53 11:114 12:208 
0.07870791960859802 1:117 2:112 3:108 4:221 5:246 6:95 7:91 8:57 9:53 10:53 11:110 12:208 
0.3254744421651113 1:116 2:117 3:108 4:157 5:172 6:113 7:222 8:68 9:53 10:53 11:110 12:159 
1 1:114 2:117 3:136 4:221 5:143 6:95 7:91 8:57 9:53 10:53 11:110 12:208 
1 1:115 2:117 3:108 4:221 5:189 6:69 7:91 8:68 9:53 10:224 11:110 12:208 
0.3250441391972564 1:115 2:0 3:103 4:221 5:0 6:69 7:55 8:68 9:53 10:53 11:109 12:73 
0.3250192821431228 1:118 2:117 3:136 4:221 5:172 6:95 7:91 8:57 9:225 10:53 11:113 12:95 
0.1228211983757671 1:119 2:112 3:108 4:106 5:172 6:162 7:91 8:68 9:53 10:53 11:112 12:208 
0.1837109231674088 1:115 2:117 3:172 4:157 5:165 6:162 7:91 8:57 9:53 10:53 11:114 12:95 
0.3226433901528377 1:116 2:117 3:108 4:157 5:82 6:162 7:91 8:68 9:218 10:53 11:118 12:208 
0.2147316161581256 1:113 2:117 3:108 4:106 5:172 6:183 7:55 8:68 9:53 10:53 11:117 12:208 
0.325319849329415 1:116 2:174 3:152 4:221 5:190 6:69 7:91 8:68 9:53 10:53 11:107 12:208 
1 1:109 2:117 3:108 4:221 5:82 6:95 7:91 8:57 9:53 10:53 11:110 12:208 
0.2745400812784238 1:120 2:117 3:135 4:106 5:106 6:162 7:55 8:68 9:53 10:53 11:110 12:208 
0.06527725246627 1:115 2:174 3:90 4:221 5:140 6:95 7:91 8:57 9:53 10:53 11:109 12:208 
0.325033101008294 1:114 2:174 3:108 4:157 5:82 6:113 7:91 8:57 9:53 10:53 11:110 12:208 
1 1:113 2:112 3:108 4:221 5:222 6:95 7:91 8:57 9:53 10:53 11:110 12:208 
1 1:117 2:117 3:108 4:221 5:140 6:95 7:91 8:57 9:53 10:53 11:118 12:208 
0.3040475822084485 1:119 2:112 3:108 4:221 5:140 6:95 7:91 8:57 9:53 10:216 11:110 12:208 
0.3250429047818283 1:114 2:117 3:176 4:221 5:222 6:95 7:91 8:57 9:53 10:53 11:110 12:53 
0.1802043066543983 1:118 2:0 3:108 4:106 5:0 6:129 7:91 8:68 9:53 10:53 11:110 12:208 
0.1400416871079271 1:113 2:117 3:136 4:157 5:143 6:129 7:91 8:57 9:53 10:53 11:111 12:208 
0.2482446583085659 1:112 2:117 3:176 4:221 5:140 6:95 7:91 8:57 9:230 10:53 11:110 12:208 
0.01790473678781752 1:108 2:117 3:136 4:157 5:82 6:113 7:91 8:57 9:53 10:53 11:108 12:208 
1 1:113 2:117 3:121 4:106 5:143 6:129 7:91 8:57 9:53 10:53 11:111 12:208 
1 1:114 2:117 3:108 4:221 5:189 6:95 7:91 8:57 9:53 10:53 11:112 12:208 
1 1:111 2:117 3:108 4:221 5:189 6:69 7:91 8:68 9:53 10:53 11:110 12:208 
0.05553075231881804 1:108 2:174 3:108 4:157 5:246 6:113 7:91 8:57 9:53 10:53 11:114 12:208 
0.3251896869941335 1:114 2:117 3:90 4:106 5:172 6:162 7:91 8:68 9:53 10:53 11:115 12:50 
0.3208097688177085 1:114 2:117 3:136 4:157 5:106 6:113 7:91 8:68 9:223 10:53 11:108 12:208 
1 1:119 2:117 3:108 4:221 5:143 6:69 7:91 8:68 9:53 10:53 11:113 12:208 
1 1:115 2:117 3:121 4:221 5:190 6:95 7:91 8:57 9:53 10:53 11:112 12:208 
0.198858063047247 1:110 2:0 3:136 4:106 5:0 6:162 7:91 8:68 9:53 10:53 11:114 12:208 
0.2362462659741221 1:111 2:0 3:176 4:109 5:0 6:162 7:91 8:68 9:53 10:53 11:110 12:208 
0.3233136141250545 1:112 2:117 3:109 4:157 5:189 6:162 7:222 8:57 9:53 10:53 11:115 12:61 
0.2312341789746083 1:117 2:120 3:136 4:221 5:140 6:95 7:91 8:57 9:53 10:53 11:110 12:0 
0.4100290460836471 1:119 2:117 3:137 4:221 5:189 6:95 7:91 8:57 9:53 10:53 11:118 12:208 
0.3257045576576972 1:118 2:117 3:136 4:106 5:106 6:129 7:236 8:68 9:53 10:53 11:110 12:208 
1 1:117 2:117 3:108 4:221 5:246 6:95 7:91 8:57 9:53 10:53 11:115 12:208 
1 1:112 2:112 3:108 4:221 5:222 6:95 7:91 8:57 9:53 10:53 11:113 12:208 
0.9528173118290352 1:114 2:117 3:136 4:106 5:140 6:162 7:91 8:57 9:53 10:53 11:110 12:208 
1 1:110 2:117 3:122 4:221 5:172 6:95 7:91 8:57 9:53 10:53 11:112 12:208 
0.3252163674152266 1:112 2:117 3:121 4:157 5:143 6:113 7:91 8:57 9:239 10:53 11:115 12:208 
0.07527144803330735 1:114 2:117 3:109 4:157 5:140 6:183 7:91 8:57 9:53 10:53 11:110 12:208 
0.2865686870716215 1:109 2:117 3:108 4:157 5:172 6:162 7:91 8:68 9:53 10:230 11:113 12:208 
0.3158176918312978 1:118 2:112 3:108 4:221 5:246 6:95 7:91 8:57 9:53 10:53 11:115 12:208 
0.3247942010612107 1:111 2:117 3:176 4:106 5:140 6:162 7:91 8:68 9:53 10:53 11:109 12:208 
1 1:113 2:174 3:136 4:221 5:140 6:95 7:91 8:57 9:53 10:53 11:112 12:208 
0.05303832868688613 1:112 2:117 3:136 4:109 5:143 6:162 7:91 8:68 9:53 10:53 11:116 12:208 
0.3250841885099668 1:113 2:117 3:109 4:221 5:143 6:113 7:91 8:68 9:53 10:53 11:110 12:208 
0.3251494768707733 1:117 2:174 3:109 4:106 5:143 6:162 7:222 8:57 9:53 10:53 11:112 12:68 
0.1298787942693736 1:110 2:174 3:108 4:157 5:165 6:162 7:91 8:57 9:53 10:53 11:113 12:208 
0.08663068172198676 1:116 2:117 3:136 4:157 5:172 6:113 7:91 8:68 9:53 10:53 11:107 12:208 
0.1962874187642617 1:116 2:117 3:135 4:157 5:189 6:113 7:55 8:57 9:53 10:53 11:115 12:208 
0.1058363372583177 1:112 2:117 3:108 4:157 5:183 6:183 7:55 8:57 9:53 10:53 11:110 12:208 
0.3379180498403677 1:114 2:117 3:108 4:221 5:222 6:95 7:91 8:57 9:238 10:53 11:108 12:208 
0.2206595870901937 1:117 2:117 3:108 4:248 5:222 6:162 7:91 8:57 9:53 10:53 11:110 12:208 
0.3252039890579506 1:120 2:112 3:108 4:109 5:165 6:129 7:91 8:57 9:53 10:229 11:110 12:208 
1 1:116 2:117 3:108 4:221 5:143 6:95 7:91 8:57 9:53 10:53 11:110 12:208 
0.1870515296283593 1:117 2:117 3:135 4:157 5:172 6:113 7:91 8:57 9:53 10:53 11:110 12:208 
0.3251966796938641 1:110 2:117 3:103 4:157 5:106 6:162 7:91 8:57 9:218 10:53 11:117 12:208 
0.1442912547802377 1:110 2:117 3:103 4:106 5:106 6:129 7:91 8:68 9:53 10:53 11:110 12:208 
0.3250403987030718 1:118 2:117 3:172 4:248 5:183 6:129 7:91 8:68 9:53 10:53 11:110 12:191 
0.2101900231655026 1:109 2:120 3:90 4:221 5:186 6:95 7:91 8:57 9:53 10:53 11:110 12:208 
0.2804397141749114 1:117 2:117 3:90 4:157 5:172 6:129 7:91 8:68 9:53 10:53 11:111 12:208 
0.3249463563895404 1:115 2:117 3:121 4:157 5:106 6:162 7:222 8:68 9:53 10:53 11:110 12:159 
0.3250408047536332 1:110 2:117 3:136 4:221 5:189 6:95 7:55 8:57 9:53 10:53 11:110 12:182 
0.2533879699570765 1:116 2:117 3:103 4:221 5:183 6:95 7:55 8:57 9:53 10:53 11:110 12:208 
0.2206671368227102 1:115 2:117 3:176 4:106 5:82 6:162 7:91 8:68 9:53 10:53 11:110 12:208 
1 1:116 2:117 3:109 4:221 5:106 6:95 7:91 8:57 9:53 10:53 11:110 12:208 
0.05674776508466749 1:117 2:117 3:136 4:109 5:106 6:129 7:55 8:68 9:53 10:53 11:110 12:208 
0.02570492168168848 1:113 2:117 3:108 4:106 5:172 6:162 7:91 8:68 9:53 10:53 11:117 12:208 
0.09032081957880397 1:111 2:117 3:108 4:157 5:143 6:162 7:91 8:57 9:226 10:53 11:110 12:208 
0.2473138982550235 1:111 2:134 3:121 4:157 5:190 6:162 7:91 8:57 9:53 10:53 11:117 12:208 
0.4608929515396374 1:120 2:117 3:136 4:221 5:189 6:95 7:91 8:57 9:53 10:53 11:110 12:208 
1 1:111 2:117 3:108 4:221 5:82 6:95 7:91 8:57 9:53 10:53 11:119 12:208 
0.2484411376258411 1:116 2:112 3:176 4:221 5:222 6:95 7:91 8:57 9:226 10:53 11:107 12:208 
0.3499079659809378 1:113 2:126 3:108 4:106 5:143 6:129 7:91 8:57 9:53 10:53 11:117 12:208 
1 1:118 2:117 3:108 4:221 5:143 6:95 7:91 8:57 9:53 10:53 11:112 12:208 
0.2917797779934574 1:110 2:117 3:136 4:109 5:82 6:113 7:55 8:68 9:53 10:53 11:114 12:208 
0.1267658858857794 1:118 2:117 3:108 4:106 5:140 6:129 7:91 8:68 9:53 10:53 11:110 12:208 
1 1:113 2:117 3:108 4:221 5:140 6:95 7:91 8:57 9:53 10:53 11:110 12:0 
0.1974715026382928 1:110 2:117 3:176 4:157 5:140 6:162 7:91 8:57 9:53 10:53 11:110 12:208 
0.1396190424852734 1:116 2:117 3:136 4:157 5:82 6:113 7:91 8:57 9:53 10:53 11:115 12:208 
0.2601176646425137 1:116 2:112 3:108 4:106 5:106 6:129 7:55 8:68 9:53 10:53 11:114 12:208 
0.31801490562327 1:115 2:117 3:108 4:106 5:246 6:129 7:91 8:68 9:53 10:53 11:116 12:208 
0.2707269167360649 1:109 2:134 3:136 4:157 5:172 6:113 7:91 8:57 9:53 10:53 11:107 12:208 
0.1077084242047771 1:116 2:112 3:136 4:221 5:190 6:95 7:91 8:57 9:53 10:53 11:112 12:208 
0.1706968792930621 1:112 2:134 3:121 4:106 5:190 6:162 7:91 8:68 9:53 10:53 11:117 12:208 
1 1:119 2:117 3:121 4:221 5:82 6:95 7:91 8:57 9:53 10:53 11:110 12:208 
0.2521775003075564 1:113 2:117 3:108 4:221 5:165 6:95 7:91 8:57 9:53 10:53 11:109 12:208 
0.3169241471465912 1:109 2:117 3:136 4:106 5:106 6:129 7:91 8:57 9:53 10:53 11:110 12:208 
1 1:115 2:117 3:109 4:221 5:106 6:95 7:222 8:57 9:53 10:53 11:110 12:159 
0.4518606064334993 1:113 2:112 3:136 4:221 5:246 6:95 7:91 8:57 9:53 10:234 11:110 12:208 
1 1:117 2:117 3:109 4:221 5:140 6:69 7:91 8:68 9:53 10:53 11:110 12:208 
0.3250932665745939 1:114 2:117 3:176 4:157 5:246 6:162 7:236 8:57 9:53 10:53 11:110 12:208 
0.2271557055685416 1:115 2:120 3:108 4:157 5:246 6:162 7:55 8:57 9:225 10:53 11:110 12:208 
0.3251658633762698 1:109 2:117 3:136 4:157 5:172 6:113 7:91 8:68 9:53 10:53 11:110 12:191 
0.8697856285062131 1:115 2:0 3:121 4:221 5:0 6:95 7:91 8:57 9:53 10:53 11:109 12:208 
0.3249857645533861 1:111 2:117 3:90 4:157 5:183 6:113 7:55 8:57 9:53 10:53 11:115 12:208 
0.3250233258015781 1:117 2:174 3:108 4:157 5:246 6:129 7:55 8:57 9:53 10:53 11:115 12:208 
0.1806414737796557 1:114 2:134 3:121 4:157 5:190 6:162 7:91 8:68 9:53 10:53 11:112 12:208 
0.2019514382535673 1:115 2:117 3:108 4:157 5:172 6:113 7:91 8:68 9:53 10:53 11:61 12:208 
0.8345694893065705 1:116 2:117 3:136 4:221 5:189 6:95 7:91 8:57 9:53 10:53 11:110 12:208 
0.3251833704485857 1:112 2:0 3:109 4:248 5:0 6:129 7:55 8:68 9:53 10:53 11:112 12:208 
0.1496111731706047 1:111 2:117 3:136 4:157 5:172 6:162 7:91 8:57 9:53 10:53 11:108 12:208 
0.1892922492905659 1:115 2:120 3:108 4:106 5:106 6:162 7:91 8:68 9:53 10:53 11:118 12:208 
0.2663046323815324 1:116 2:117 3:90 4:106 5:172 6:162 7:91 8:57 9:53 10:53 11:113 12:208 
0.007965773885164484 1:110 2:117 3:108 4:157 5:106 6:113 7:55 8:57 9:53 10:53 11:110 12:208 
0.05607244887587186 1:111 2:134 3:109 4:157 5:106 6:162 7:91 8:57 9:53 10:53 11:116 12:208 
0.2271872290342885 1:109 2:117 3:136 4:157 5:172 6:113 7:91 8:57 9:53 10:53 11:107 12:208 
1 1:112 2:174 3:109 4:221 5:82 6:95 7:91 8:57 9:53 10:53 11:112 12:208 
0.18911990713536 1:111 2:0 3:109 4:157 5:0 6:113 7:91 8:57 9:53 10:53 11:114 12:208 
0.1939434882052677 1:109 2:117 3:136 4:106 5:106 6:162 7:91 8:68 9:53 10:53 11:115 12:208 
0.3253685996502728 1:112 2:117 3:108 4:157 5:172 6:129 7:91 8:57 9:53 10:53 11:110 12:160 
0.3156453638236785 1:115 2:120 3:109 4:157 5:143 6:162 7:55 8:57 9:53 10:53 11:118 12:208 
0.266216005445359 1:115 2:112 3:136 4:157 5:143 6:129 7:91 8:57 9:53 10:53 11:110 12:208 
0.1340161516604614 1:120 2:117 3:108 4:157 5:82 6:162 7:91 8:68 9:53 10:53 11:110 12:208 
0.3251548115450758 1:110 2:174 3:108 4:157 5:172 6:113 7:91 8:57 9:53 10:53 11:110 12:69 
0.4720954325327716 1:120 2:174 3:108 4:221 5:165 6:95 7:91 8:57 9:53 10:53 11:115 12:208 
0.3278633432419362 1:114 2:117 3:136 4:109 5:143 6:162 7:91 8:68 9:53 10:53 11:113 12:208 
0.1759401285165686 1:114 2:117 3:108 4:106 5:172 6:183 7:91 8:57 9:53 10:53 11:110 12:208 
0.2951730539977366 1:120 2:117 3:136 4:109 5:82 6:162 7:91 8:57 9:53 10:53 11:110 12:208 
1 1:115 2:117 3:109 4:221 5:82 6:95 7:91 8:57 9:53 10:53 11:116 12:208 
1 1:113 2:117 3:108 4:221 5:189 6:95 7:91 8:57 9:53 10:53 11:115 12:208 
0.3250972681047779 1:117 2:117 3:136 4:157 5:172 6:162 7:92 8:57 9:53 10:227 11:110 12:0 
0.3251164825252328 1:117 2:183 3:176 4:109 5:165 6:129 7:91 8:68 9:53 10:53 11:111 12:208 
0.5082508952460747 1:115 2:112 3:121 4:106 5:190 6:129 7:91 8:68 9:224 10:53 11:115 12:208 
0.2165716726105377 1:114 2:174 3:121 4:157 5:190 6:162 7:91 8:68 9:53 10:53 11:111 12:208 
0.2887612655221756 1:117 2:117 3:136 4:221 5:140 6:95 7:91 8:57 9:53 10:53 11:115 12:208 
0.3060123209729189 1:118 2:117 3:108 4:157 5:189 6:129 7:91 8:57 9:53 10:53 11:118 12:208 
0.3281797444627317 1:113 2:126 3:152 4:221 5:143 6:95 7:91 8:57 9:53 10:53 11:110 12:208 
0.2543362557233088 1:118 2:117 3:177 4:221 5:140 6:95 7:91 8:57 9:53 10:53 11:115 12:95 
0.3227158751242431 1:111 2:174 3:136 4:106 5:140 6:162 7:91 8:57 9:53 10:53 11:110 12:208 
1 1:117 2:117 3:109 4:221 5:82 6:95 7:91 8:57 9:53 10:53 11:113 12:208 
0.3095355208102499 1:116 2:112 3:122 4:221 5:222 6:95 7:55 8:57 9:53 10:53 11:116 12:208 
0.1979862358016582 1:109 2:117 3:109 4:157 5:82 6:162 7:91 8:57 9:53 10:225 11:118 12:208 
0.3368616165091697 1:115 2:117 3:108 4:221 5:183 6:95 7:91 8:57 9:53 10:229 11:115 12:208 
0.269944561782978 1:118 2:117 3:121 4:157 5:190 6:162 7:91 8:57 9:53 10:53 11:114 12:208 
0.02353915673954229 1:113 2:117 3:136 4:106 5:106 6:162 7:91 8:57 9:53 10:53 11:118 12:208 
0.3250267789009764 1:111 2:0 3:136 4:221 5:0 6:113 7:55 8:68 9:53 10:53 11:110 12:208 
0.3250283178137632 1:116 2:117 3:176 4:221 5:189 6:183 7:222 8:68 9:53 10:53 11:118 12:61 
1 1:115 2:117 3:109 4:221 5:143 6:95 7:91 8:57 9:53 10:53 11:115 12:208 
0.3251812167146371 1:117 2:112 3:109 4:115 5:190 6:129 7:55 8:57 9:53 10:53 11:110 12:208 
0.6142704440770765 1:118 2:117 3:136 4:221 5:165 6:95 7:91 8:57 9:53 10:53 11:115 12:208 
0.2966863560598195 1:112 2:112 3:108 4:106 5:222 6:129 7:55 8:68 9:53 10:53 11:110 12:208 
0.3071021263957548 1:115 2:112 3:136 4:157 5:106 6:183 7:91 8:68 9:53 10:53 11:113 12:208 
0.008562548412097803 1:118 2:117 3:121 4:106 5:190 6:162 7:91 8:68 9:53 10:53 11:110 12:208 
0.1071601613417275 1:113 2:134 3:108 4:157 5:106 6:129 7:55 8:68 9:53 10:53 11:110 12:208 
0.325030100165088 1:117 2:134 3:109 4:221 5:190 6:95 7:91 8:57 9:53 10:53 11:113 12:101 
1 1:114 2:174 3:109 4:221 5:143 6:95 7:91 8:57 9:53 10:53 11:110 12:208 
0.2983196673279616 1:120 2:112 3:108 4:221 5:143 6:95 7:91 8:57 9:53 10:53 11:59 12:208 
1 1:109 2:117 3:109 4:157 5:190 6:162 7:55 8:57 9:53 10:53 11:110 12:208 
0.1506244804375709 1:118 2:117 3:135 4:221 5:222 6:95 7:91 8:57 9:53 10:53 11:110 12:208 
0.1371081378036867 1:116 2:117 3:108 4:109 5:172 6:162 7:91 8:68 9:53 10:53 11:117 12:208 
0.3141031431012541 1:114 2:117 3:109 4:157 5:190 6:162 7:91 8:68 9:53 10:53 11:111 12:208 
0.2088351712113139 1:116 2:117 3:109 4:157 5:246 6:129 7:91 8:57 9:53 10:53 11:108 12:208 
0.2889674170719879 1:110 2:0 3:136 4:115 5:0 6:162 7:55 8:57 9:53 10:53 11:110 12:208 
0.326557113133517 1:109 2:117 3:108 4:221 5:172 6:95 7:91 8:57 9:53 10:53 11:116 12:109 
0.6632362507932091 1:112 2:117 3:108 4:221 5:82 6:95 7:91 8:57 9:53 10:53 11:108 12:208 
0.3253230536369324 1:118 2:112 3:135 4:106 5:183 6:113 7:55 8:57 9:53 10:53 11:110 12:208 
0.2136035465171291 1:114 2:112 3:152 4:106 5:190 6:162 7:91 8:68 9:53 10:53 11:111 12:208 
0.5331441878301304 1:110 2:117 3:109 4:157 5:143 6:162 7:55 8:68 9:53 10:53 11:110 12:208 
0.2118220999697273 1:117 2:117 3:108 4:157 5:189 6:162 7:91 8:57 9:53 10:53 11:118 12:208 
0.3250243803522059 1:116 2:0 3:103 4:246 5:0 6:69 7:91 8:68 9:53 10:53 11:56 12:208 
1 1:113 2:117 3:108 4:221 5:140 6:95 7:91 8:57 9:53 10:53 11:111 12:208 
0.2891743185815395 1:109 2:117 3:136 4:157 5:82 6:162 7:55 8:68 9:53 10:53 11:114 12:208 
0.3152133550704978 1:116 2:117 3:108 4:157 5:221 6:162 7:91 8:68 9:53 10:53 11:115 12:0 
0.8412142863343586 1:111 2:117 3:108 4:106 5:143 6:129 7:91 8:57 9:53 10:53 11:117 12:208 
0.3254260154120669 1:118 2:174 3:121 4:248 5:190 6:162 7:91 8:68 9:53 10:53 11:111 12:208 
0.3200011808461227 1:112 2:134 3:108 4:106 5:140 6:129 7:91 8:57 9:53 10:53 11:117 12:208 
0.2278390898641822 1:114 2:117 3:108 4:157 5:140 6:129 7:91 8:57 9:53 10:53 11:114 12:208 
0.1134329180735777 1:116 2:117 3:136 4:157 5:82 6:183 7:91 8:68 9:53 10:53 11:110 12:208 
0.021554640648413 1:118 2:174 3:108 4:221 5:165 6:95 7:91 8:57 9:226 10:53 11:110 12:208 
0.212545267359457 1:118 2:117 3:109 4:115 5:82 6:162 7:91 8:57 9:53 10:53 11:111 12:208 
0.3236844164594047 1:118 2:117 3:136 4:157 5:106 6:183 7:55 8:68 9:53 10:53 11:110 12:64 
0.3215745206675196 1:112 2:117 3:176 4:221 5:140 6:95 7:91 8:57 9:228 10:53 11:117 12:208 
0.3250994219742159 1:111 2:117 3:136 4:248 5:172 6:162 7:91 8:68 9:53 10:53 11:111 12:208 
0.6858790060641535 1:110 2:117 3:109 4:157 5:143 6:162 7:91 8:68 9:53 10:225 11:110 12:208 
1 1:109 2:117 3:109 4:221 5:190 6:95 7:91 8:57 9:53 10:224 11:115 12:208 
0.3250243398623157 1:110 2:117 3:152 4:157 5:190 6:162 7:91 8:68 9:53 10:53 11:114 12:0 
0.4840950120866417 1:113 2:117 3:121 4:157 5:190 6:162 7:91 8:57 9:235 10:53 11:112 12:208 
0.1658503399656456 1:118 2:120 3:108 4:157 5:106 6:162 7:91 8:57 9:53 10:229 11:110 12:208 
0.3548013886855678 1:112 2:112 3:103 4:221 5:172 6:69 7:91 8:68 9:53 10:53 11:110 12:208 
0.1716612010625956 1:115 2:117 3:127 4:157 5:190 6:162 7:91 8:57 9:53 10:53 11:110 12:83 
0.3251806101432915 1:111 2:117 3:136 4:106 5:172 6:183 7:91 8:57 9:53 10:53 11:110 12:101 
0.1442298621361579 1:114 2:117 3:103 4:106 5:172 6:113 7:91 8:68 9:53 10:53 11:110 12:208 
1 1:115 2:117 3:109 4:221 5:143 6:95 7:91 8:57 9:53 10:53 11:110 12:208 
0.0130933466952509 1:111 2:0 3:109 4:157 5:0 6:162 7:91 8:68 9:53 10:53 11:111 12:208 
1 1:114 2:120 3:136 4:221 5:186 6:95 7:91 8:57 9:53 10:53 11:110 12:208 
1 1:111 2:134 3:121 4:221 5:190 6:95 7:91 8:57 9:53 10:53 11:111 12:208 
0.3254769974496756 1:115 2:117 3:136 4:221 5:82 6:113 7:55 8:57 9:53 10:53 11:114 12:208 
0.1202692064123427 1:111 2:117 3:108 4:115 5:143 6:129 7:91 8:68 9:53 10:53 11:112 12:208 
0.3250224509389508 1:116 2:0 3:136 4:157 5:0 6:183 7:236 8:68 9:53 10:53 11:110 12:208 
1 1:111 2:117 3:135 4:221 5:140 6:95 7:91 8:57 9:53 10:53 11:117 12:208 
1 1:119 2:134 3:136 4:221 5:190 6:95 7:91 8:57 9:53 10:53 11:110 12:208 
0.3007800641453591 1:114 2:174 3:135 4:157 5:106 6:113 7:91 8:57 9:53 10:53 11:107 12:208 
0.100739722674947 1:111 2:0 3:108 4:157 5:0 6:162 7:91 8:57 9:53 10:53 11:109 12:208 
0.3097162322445737 1:112 2:117 3:109 4:248 5:190 6:113 7:91 8:68 9:53 10:53 11:110 12:208 
0.2526113272318873 1:115 2:117 3:136 4:157 5:172 6:183 7:55 8:57 9:53 10:53 11:108 12:208 
0.3252216551082021 1:112 2:117 3:136 4:157 5:82 6:129 7:91 8:57 9:53 10:53 11:111 12:95 
0.2148601627788828 1:109 2:112 3:176 4:221 5:246 6:95 7:91 8:57 9:53 10:53 11:110 12:208 
0.1691942735971391 1:108 2:117 3:137 4:157 5:106 6:113 7:91 8:68 9:53 10:53 11:110 12:95 
0.325297140172468 1:117 2:117 3:108 4:106 5:172 6:162 7:222 8:68 9:53 10:53 11:110 12:208 
0.3249514529066798 1:111 2:117 3:108 4:157 5:221 6:129 7:91 8:68 9:53 10:53 11:110 12:95 
0.5526548319060567 1:113 2:117 3:136 4:106 5:143 6:113 7:91 8:57 9:53 10:53 11:114 12:208 
0.4612040452330523 1:115 2:117 3:109 4:157 5:190 6:162 7:91 8:57 9:53 10:53 11:116 12:208 
0.2006730357059677 1:113 2:120 3:108 4:157 5:106 6:113 7:55 8:57 9:53 10:53 11:110 12:208 
0.2801241863638946 1:113 2:174 3:136 4:157 5:189 6:113 7:91 8:57 9:53 10:53 11:110 12:208 
0.2837375510958457 1:116 2:117 3:108 4:157 5:165 6:113 7:91 8:57 9:53 10:53 11:115 12:208 
1 1:117 2:117 3:136 4:221 5:143 6:95 7:91 8:57 9:53 10:53 11:115 12:208 
0.3095279892526752 1:120 2:112 3:108 4:115 5:222 6:129 7:55 8:68 9:53 10:53 11:110 12:208 
0.2098501261453452 1:110 2:117 3:136 4:115 5:143 6:129 7:91 8:68 9:53 10:53 11:112 12:208 
0.01818046874218751 1:112 2:117 3:108 4:106 5:189 6:162 7:91 8:57 9:53 10:53 11:115 12:208 
0.3250160033158161 1:116 2:0 3:108 4:221 5:0 6:69 7:91 8:68 9:53 10:53 11:114 12:126 
0.13650052924026 1:117 2:0 3:109 4:157 5:0 6:162 7:91 8:57 9:53 10:53 11:110 12:208 
0.08558464694890139 1:114 2:117 3:136 4:106 5:82 6:162 7:91 8:57 9:53 10:53 11:111 12:208 
0.2688648786670443 1:114 2:117 3:109 4:157 5:190 6:162 7:222 8:57 9:53 10:53 11:113 12:68 
0.1443435218403968 1:117 2:112 3:108 4:106 5:106 6:162 7:91 8:68 9:53 10:53 11:116 12:208 
0.3250102916343454 1:113 2:174 3:121 4:221 5:140 6:95 7:91 8:57 9:53 10:53 11:57 12:0 
0.1329768378902998 1:109 2:117 3:108 4:106 5:140 6:129 7:91 8:68 9:53 10:53 11:110 12:208 
0.3250143899864932 1:114 2:117 3:136 4:221 5:246 6:95 7:222 8:57 9:53 10:53 11:110 12:0 
0.3252430933428222 1:114 2:117 3:136 4:248 5:140 6:183 7:55 8:68 9:53 10:53 11:114 12:219 
0.9296041437256443 1:116 2:117 3:136 4:115 5:106 6:129 7:91 8:68 9:53 10:53 11:110 12:208 
0.1402569740468786 1:109 2:134 3:136 4:157 5:186 6:113 7:91 8:68 9:53 10:53 11:107 12:208 
0.3311710421218444 1:116 2:117 3:108 4:106 5:140 6:162 7:91 8:57 9:53 10:234 11:116 12:208 
0.3982583549203378 1:115 2:112 3:121 4:106 5:190 6:162 7:91 8:68 9:53 10:53 11:109 12:208 
0.3157723393743967 1:113 2:0 3:127 4:109 5:0 6:162 7:91 8:68 9:53 10:53 11:58 12:208 
0.3186784451987777 1:118 2:117 3:108 4:157 5:140 6:113 7:91 8:57 9:53 10:53 11:110 12:208 
0.5905727670121922 1:112 2:117 3:108 4:221 5:106 6:69 7:91 8:68 9:53 10:53 11:114 12:208 
0.2614280060079182 1:111 2:117 3:108 4:157 5:222 6:113 7:55 8:57 9:53 10:53 11:113 12:208 
0.3157525496851079 1:117 2:117 3:172 4:157 5:221 6:113 7:91 8:68 9:53 10:53 11:110 12:160 
0.3225987947633693 1:108 2:0 3:136 4:157 5:0 6:113 7:222 8:68 9:53 10:53 11:112 12:208 
1 1:117 2:134 3:136 4:221 5:190 6:95 7:91 8:57 9:53 10:53 11:111 12:208 
0.3249903226072396 1:116 2:134 3:136 4:115 5:106 6:129 7:222 8:68 9:53 10:53 11:110 12:63 
0.8025911013926424 1:115 2:117 3:121 4:157 5:143 6:162 7:91 8:68 9:53 10:53 11:113 12:208 
0.08254024352419465 1:117 2:117 3:122 4:221 5:140 6:95 7:91 8:57 9:221 10:53 11:110 12:208 
0.1756516649527876 1:114 2:117 3:108 4:157 5:82 6:162 7:222 8:68 9:53 10:53 11:110 12:208 
0.1462490541488559 1:113 2:117 3:136 4:157 5:221 6:162 7:91 8:68 9:53 10:53 11:110 12:208 
0.3249809429509316 1:112 2:120 3:136 4:106 5:106 6:183 7:91 8:68 9:53 10:53 11:110 12:191 
0.2380737897941609 1:115 2:112 3:121 4:109 5:190 6:129 7:91 8:68 9:53 10:53 11:117 12:208 
0.5793135506221233 1:119 2:117 3:108 4:109 5:186 6:129 7:91 8:57 9:53 10:53 11:110 12:208 
0.135050420545174 1:117 2:112 3:136 4:109 5:106 6:129 7:91 8:68 9:53 10:53 11:110 12:208 
1 1:113 2:117 3:121 4:106 5:190 6:113 7:91 8:68 9:53 10:53 11:110 12:208 
0.2618519609391122 1:113 2:117 3:108 4:221 5:246 6:95 7:91 8:57 9:53 10:53 11:110 12:191 
1 1:117 2:117 3:136 4:221 5:140 6:95 7:91 8:57 9:53 10:53 11:116 12:208 
0.192429142511981 1:109 2:117 3:136 4:157 5:106 6:162 7:91 8:57 9:53 10:53 11:118 12:208 
0.2854780966221579 1:118 2:117 3:135 4:109 5:221 6:162 7:91 8:68 9:53 10:53 11:113 12:208 
0.1255195674492459 1:109 2:117 3:136 4:157 5:172 6:162 7:91 8:68 9:53 10:53 11:116 12:208 
0.3279444652095114 1:113 2:0 3:109 4:221 5:0 6:95 7:91 8:57 9:53 10:53 11:116 12:208 
0.1181170189133717 1:110 2:117 3:136 4:157 5:172 6:113 7:55 8:68 9:53 10:53 11:112 12:208 
1 1:117 2:117 3:108 4:221 5:82 6:95 7:91 8:57 9:53 10:53 11:110 12:208 
0.3249864061708553 1:111 2:174 3:122 4:106 5:82 6:129 7:91 8:57 9:53 10:53 11:111 12:208 
0.3251286103947742 1:120 2:117 3:135 4:115 5:221 6:162 7:55 8:68 9:53 10:53 11:109 12:208 
0.3251229213535781 1:112 2:117 3:108 4:115 5:222 6:113 7:91 8:68 9:53 10:53 11:110 12:208 
1 1:112 2:117 3:108 4:221 5:82 6:95 7:91 8:57 9:53 10:53 11:118 12:208 
0.1087433077951171 1:114 2:174 3:176 4:221 5:165 6:95 7:91 8:57 9:53 10:53 11:118 12:208 
0.1377699479897114 1:117 2:174 3:121 4:106 5:190 6:162 7:91 8:57 9:53 10:53 11:110 12:208 
0.3197032323710577 1:117 2:120 3:136 4:109 5:246 6:162 7:91 8:68 9:53 10:53 11:115 12:208 
0.3249636025320496 1:118 2:117 3:137 4:115 5:106 6:113 7:55 8:68 9:53 10:53 11:110 12:208 
0.3249783832587076 1:109 2:117 3:90 4:221 5:183 6:183 7:91 8:57 9:53 10:53 11:110 12:95 
1 1:111 2:117 3:109 4:221 5:82 6:95 7:91 8:57 9:53 10:53 11:110 12:208 
0.3250114525044793 1:117 2:117 3:122 4:221 5:165 6:95 7:91 8:57 9:238 10:53 11:112 12:208 
1 1:116 2:120 3:103 4:221 5:106 6:95 7:91 8:57 9:53 10:53 11:112 12:208 
0.005114254942523324 1:116 2:117 3:109 4:109 5:106 6:129 7:91 8:68 9:53 10:53 11:110 12:208 
0.2519391882585628 1:119 2:112 3:109 4:157 5:190 6:113 7:91 8:68 9:53 10:53 11:111 12:208 
0.2165373032300923 1:110 2:117 3:108 4:115 5:143 6:129 7:91 8:68 9:53 10:53 11:109 12:208 
0.8730417090474646 1:113 2:174 3:109 4:221 5:82 6:95 7:222 8:57 9:53 10:53 11:112 12:109 
0.3758132733334949 1:119 2:112 3:108 4:109 5:222 6:162 7:55 8:57 9:53 10:53 11:110 12:208 
0.2698556163870059 1:118 2:0 3:136 4:106 5:0 6:162 7:91 8:68 9:53 10:53 11:114 12:208 
0.5983905815903541 1:115 2:117 3:108 4:157 5:172 6:162 7:91 8:68 9:53 10:53 11:112 12:208 
0.3252024456369482 1:116 2:174 3:108 4:157 5:172 6:162 7:91 8:57 9:223 10:53 11:110 12:208 
0.3248296042302796 1:114 2:117 3:108 4:106 5:82 6:162 7:91 8:68 9:53 10:53 11:116 12:95 
0.2892125967304452 1:118 2:134 3:108 4:115 5:172 6:162 7:91 8:68 9:53 10:53 11:114 12:208 
0.2494035253960913 1:108 2:0 3:136 4:157 5:0 6:113 7:91 8:68 9:53 10:53 11:61 12:208 
0.3249718130484762 1:111 2:117 3:176 4:157 5:140 6:113 7:55 8:57 9:53 10:53 11:110 12:208 
0.5874434243949554 1:110 2:117 3:136 4:157 5:246 6:129 7:91 8:57 9:53 10:53 11:110 12:208 
0.2087713597074739 1:111 2:134 3:109 4:157 5:186 6:162 7:91 8:57 9:53 10:53 11:110 12:208 
0.2615151287872865 1:112 2:117 3:176 4:221 5:246 6:95 7:91 8:57 9:53 10:53 11:110 12:53 
0.5759157425547232 1:115 2:117 3:108 4:157 5:82 6:162 7:55 8:57 9:53 10:53 11:110 12:208 
0.02409969507094106 1:114 2:117 3:136 4:157 5:186 6:129 7:91 8:68 9:53 10:53 11:110 12:208 
0.7291796318844098 1:115 2:117 3:136 4:221 5:106 6:95 7:91 8:57 9:53 10:53 11:113 12:208 
0.1832029313205387 1:115 2:120 3:136 4:106 5:143 6:129 7:91 8:68 9:53 10:53 11:110 12:208 
0.2063619864052132 1:119 2:174 3:121 4:106 5:82 6:162 7:91 8:57 9:53 10:53 11:115 12:208 
0.176271754602836 1:118 2:117 3:109 4:106 5:143 6:129 7:91 8:68 9:53 10:53 11:118 12:208 
0.2618616606676352 1:115 2:134 3:136 4:157 5:106 6:129 7:91 8:68 9:53 10:53 11:110 12:208 
0.1751134303565455 1:110 2:120 3:136 4:157 5:143 6:162 7:91 8:68 9:53 10:53 11:110 12:208 
0.3252396930842204 1:114 2:117 3:122 4:115 5:172 6:162 7:55 8:57 9:53 10:53 11:110 12:208 
0.4421749495990146 1:112 2:174 3:109 4:221 5:165 6:95 7:91 8:57 9:53 10:53 11:115 12:208 
0.1304017913027773 1:108 2:117 3:108 4:157 5:172 6:113 7:91 8:68 9:53 10:53 11:113 12:208 
0.3249650639503929 1:117 2:112 3:109 4:157 5:143 6:129 7:222 8:57 9:53 10:225 11:110 12:110 
0.09898654228808906 1:112 2:117 3:122 4:157 5:143 6:113 7:91 8:57 9:53 10:53 11:114 12:208 
0.1386533268132555 1:111 2:117 3:137 4:157 5:189 6:113 7:91 8:57 9:53 10:53 11:109 12:95 
0.2929420298478713 1:111 2:112 3:108 4:157 5:246 6:129 7:55 8:68 9:53 10:53 11:116 12:208 
0.11915028705955 1:114 2:117 3:108 4:221 5:140 6:95 7:91 8:57 9:53 10:53 11:110 12:88 
0.5550892756410097 1:110 2:174 3:109 4:221 5:82 6:95 7:91 8:57 9:53 10:53 11:110 12:208 
0.2356436037454675 1:116 2:117 3:136 4:157 5:82 6:113 7:91 8:68 9:53 10:221 11:107 12:208 
1 1:111 2:117 3:136 4:221 5:82 6:95 7:91 8:57 9:53 10:53 11:110 12:208 
0.1827659568982565 1:111 2:117 3:136 4:221 5:189 6:95 7:91 8:57 9:53 10:224 11:110 12:208 
0.3050923286210033 1:117 2:117 3:103 4:109 5:172 6:113 7:91 8:68 9:53 10:53 11:114 12:208 
0.2567630146006069 1:114 2:117 3:135 4:157 5:82 6:183 7:91 8:68 9:53 10:53 11:107 12:208 
0.637922767699764 1:117 2:112 3:152 4:157 5:190 6:162 7:91 8:68 9:53 10:53 11:113 12:208 
0.2814263964654135 1:109 2:134 3:136 4:157 5:190 6:162 7:91 8:68 9:53 10:53 11:108 12:208 
0.28429527938535 1:115 2:112 3:109 4:157 5:190 6:129 7:91 8:68 9:53 10:53 11:110 12:208 
0.325154287071215 1:117 2:117 3:127 4:157 5:190 6:162 7:91 8:57 9:53 10:53 11:110 12:50 
0.3249601910429767 1:113 2:117 3:136 4:221 5:222 6:183 7:55 8:68 9:53 10:53 11:113 12:73 
0.3229104414501832 1:115 2:117 3:108 4:157 5:183 6:113 7:91 8:68 9:53 10:230 11:112 12:208 
0.09592602483885887 1:109 2:117 3:122 4:157 5:189 6:113 7:91 8:57 9:53 10:53 11:110 12:208 
0.324125799604135 1:110 2:174 3:108 4:157 5:140 6:183 7:91 8:57 9:53 10:53 11:108 12:208 
0.007477845711134094 1:110 2:117 3:109 4:106 5:106 6:129 7:91 8:68 9:53 10:53 11:115 12:208 
0.1550816114462018 1:111 2:174 3:108 4:221 5:172 6:95 7:91 8:57 9:53 10:53 11:112 12:208 
0.9769411379046679 1:113 2:174 3:109 4:106 5:143 6:162 7:91 8:57 9:53 10:53 11:112 12:208 
0.1675952084251442 1:116 2:134 3:108 4:109 5:106 6:162 7:91 8:68 9:53 10:53 11:117 12:208 
0.1416820900391108 1:117 2:117 3:176 4:109 5:246 6:162 7:91 8:57 9:53 10:53 11:108 12:208 
0.3251823158477808 1:110 2:112 3:103 4:157 5:106 6:113 7:236 8:68 9:53 10:53 11:110 12:208 
1 1:110 2:117 3:109 4:221 5:106 6:69 7:91 8:68 9:53 10:53 11:110 12:208 
0.2186754185103855 1:119 2:117 3:136 4:109 5:140 6:162 7:91 8:57 9:53 10:53 11:110 12:208 
1 1:111 2:117 3:109 4:221 5:143 6:95 7:91 8:57 9:53 10:53 11:110 12:208 
0.3314879474329946 1:119 2:126 3:108 4:157 5:82 6:162 7:91 8:57 9:53 10:53 11:117 12:208 
0.1954208306893621 1:111 2:0 3:136 4:157 5:0 6:113 7:222 8:57 9:53 10:53 11:108 12:61 
0.2019550642794015 1:116 2:117 3:136 4:109 5:140 6:129 7:91 8:57 9:53 10:53 11:110 12:208 
0.325152395358049 1:113 2:0 3:109 4:248 5:0 6:162 7:91 8:57 9:53 10:53 11:110 12:50 
0.3689925237265348 1:117 2:117 3:136 4:221 5:165 6:95 7:91 8:57 9:53 10:53 11:111 12:208 
1 1:111 2:117 3:136 4:106 5:82 6:162 7:91 8:57 9:53 10:53 11:111 12:208 
0.2319636562247168 1:114 2:117 3:136 4:115 5:246 6:162 7:91 8:57 9:53 10:53 11:115 12:208 
0.3020558036114246 1:111 2:117 3:136 4:248 5:189 6:162 7:91 8:57 9:53 10:53 11:110 12:107 
0.04760707729076782 1:110 2:117 3:135 4:157 5:246 6:113 7:91 8:57 9:53 10:53 11:113 12:208 
0.0366712567920702 1:115 2:0 3:136 4:106 5:0 6:162 7:91 8:68 9:53 10:53 11:113 12:208 
1 1:115 2:117 3:122 4:221 5:140 6:95 7:91 8:57 9:53 10:53 11:110 12:50 
0.2768303303783977 1:111 2:174 3:108 4:157 5:165 6:162 7:91 8:57 9:53 10:53 11:113 12:95 
0.2188939464794461 1:109 2:117 3:136 4:157 5:172 6:129 7:55 8:68 9:53 10:53 11:110 12:208 
0.5347689424187245 1:115 2:174 3:122 4:221 5:186 6:95 7:91 8:57 9:53 10:53 11:112 12:208 
0.3249453711216347 1:115 2:117 3:90 4:157 5:183 6:113 7:91 8:57 9:177 10:53 11:110 12:208 
0.1504357552221443 1:113 2:120 3:136 4:157 5:143 6:162 7:55 8:57 9:53 10:53 11:110 12:208 
0.1475798510318251 1:113 2:117 3:103 4:106 5:143 6:162 7:91 8:68 9:53 10:53 11:115 12:208 
0.32487973640201 1:112 2:117 3:109 4:221 5:165 6:95 7:91 8:57 9:53 10:53 11:110 12:83 
0.07872137201054784 1:116 2:117 3:103 4:221 5:82 6:95 7:91 8:57 9:53 10:53 11:109 12:208 
0.320278346936785 1:110 2:0 3:136 4:115 5:0 6:113 7:91 8:57 9:53 10:53 11:113 12:208 
0.3249524588683679 1:119 2:0 3:136 4:221 5:0 6:95 7:91 8:57 9:53 10:173 11:56 12:208 
0.06657373748754884 1:108 2:0 3:135 4:157 5:0 6:113 7:91 8:57 9:53 10:53 11:110 12:208 
1 1:113 2:117 3:109 4:221 5:143 6:95 7:91 8:57 9:53 10:53 11:113 12:208 
0.1043734912977184 1:117 2:117 3:136 4:115 5:172 6:162 7:55 8:68 9:53 10:53 11:114 12:208 
0.3537928087670807 1:112 2:117 3:122 4:157 5:106 6:162 7:91 8:57 9:53 10:53 11:115 12:208 
0.3251535086544872 1:116 2:117 3:90 4:221 5:183 6:95 7:91 8:57 9:231 10:53 11:111 12:95 
0.2999518657236854 1:113 2:112 3:109 4:115 5:190 6:162 7:91 8:57 9:53 10:53 11:109 12:0 
0.3614115339099442 1:117 2:0 3:90 4:221 5:0 6:95 7:91 8:57 9:227 10:53 11:110 12:208 
0.3002407043792994 1:118 2:117 3:136 4:221 5:140 6:95 7:91 8:57 9:53 10:53 11:110 12:88 
0.167712445756886 1:116 2:117 3:127 4:157 5:190 6:162 7:91 8:57 9:53 10:53 11:110 12:83 
0.3216707193774739 1:108 2:117 3:108 4:106 5:82 6:162 7:55 8:68 9:53 10:53 11:110 12:208 
0.2354629777354542 1:113 2:117 3:108 4:157 5:82 6:162 7:55 8:68 9:53 10:53 11:114 12:208 
0.2834443287270082 1:112 2:117 3:136 4:106 5:143 6:162 7:91 8:57 9:53 10:225 11:110 12:208 
0.03679756703294951 1:114 2:117 3:136 4:157 5:140 6:113 7:91 8:57 9:53 10:53 11:107 12:208 
0.3221858073918178 1:118 2:0 3:108 4:157 5:0 6:162 7:91 8:57 9:53 10:227 11:110 12:208 
0.3251850274038616 1:115 2:117 3:176 4:248 5:172 6:129 7:236 8:68 9:53 10:53 11:110 12:208 
0.7388371841600032 1:115 2:117 3:176 4:221 5:246 6:95 7:91 8:57 9:53 10:53 11:115 12:208 
0.4112151980798952 1:115 2:112 3:109 4:221 5:106 6:95 7:91 8:57 9:53 10:53 11:110 12:208 
1 1:114 2:117 3:136 4:221 5:183 6:95 7:91 8:57 9:53 10:234 11:110 12:208 
0.2386371005445876 1:108 2:117 3:108 4:157 5:183 6:162 7:91 8:57 9:53 10:53 11:115 12:208 
0.2488914618361741 1:113 2:117 3:137 4:157 5:189 6:162 7:91 8:57 9:53 10:225 11:110 12:208 
0.1955145402499223 1:111 2:134 3:136 4:157 5:106 6:162 7:55 8:68 9:53 10:53 11:110 12:208 
0.3158092621384052 1:108 2:117 3:136 4:157 5:189 6:113 7:236 8:57 9:53 10:53 11:110 12:208 
0.0345549180693831 1:115 2:117 3:136 4:221 5:82 6:95 7:91 8:57 9:226 10:53 11:111 12:208 
1 1:113 2:117 3:122 4:221 5:189 6:95 7:91 8:57 9:53 10:53 11:110 12:208 
0.2093349974997607 1:115 2:112 3:136 4:106 5:106 6:129 7:91 8:68 9:53 10:53 11:117 12:208 
0.3249523427684213 1:112 2:117 3:136 4:157 5:143 6:113 7:222 8:57 9:53 10:53 11:110 12:159 
0.8945669038821695 1:116 2:174 3:90 4:221 5:165 6:95 7:91 8:57 9:53 10:53 11:113 12:208 
0.4884125733952077 1:111 2:174 3:137 4:221 5:140 6:95 7:91 8:57 9:53 10:53 11:110 12:208 
0.3244205503657301 1:120 2:117 3:108 4:109 5:106 6:162 7:91 8:68 9:53 10:222 11:109 12:208 
0.4631465186734698 1:112 2:174 3:109 4:157 5:82 6:162 7:91 8:57 9:53 10:53 11:110 12:208 
0.1193305993087869 1:113 2:117 3:90 4:221 5:189 6:95 7:91 8:57 9:53 10:53 11:110 12:208 
0.4436792512139373 1:115 2:174 3:108 4:221 5:165 6:95 7:91 8:57 9:53 10:53 11:118 12:208 
0.3250468615321624 1:114 2:117 3:152 4:221 5:82 6:95 7:222 8:57 9:53 10:53 11:114 12:61 
0.2997837960029955 1:114 2:112 3:136 4:157 5:172 6:129 7:55 8:68 9:53 10:53 11:110 12:208 
0.7974797974071612 1:110 2:134 3:121 4:157 5:106 6:162 7:91 8:57 9:53 10:53 11:113 12:208 
0.3250080812657213 1:118 2:134 3:108 4:157 5:172 6:162 7:55 8:57 9:53 10:53 11:110 12:208 
0.3251731752021968 1:113 2:117 3:90 4:221 5:189 6:95 7:55 8:57 9:53 10:53 11:108 12:182 
0.2887729610977393 1:111 2:117 3:103 4:157 5:140 6:183 7:91 8:57 9:53 10:53 11:110 12:208 
0.1824107956868935 1:116 2:117 3:108 4:157 5:82 6:113 7:91 8:57 9:53 10:53 11:56 12:208 
1 1:110 2:117 3:136 4:221 5:190 6:95 7:236 8:57 9:53 10:53 11:110 12:208 
0.312649649708368 1:117 2:112 3:108 4:157 5:222 6:162 7:55 8:68 9:53 10:53 11:110 12:208 
